%YAML:1.0
---
opencv_ml_svm:
   format: 3
   svmType: C_SVC
   kernel:
      type: RBF
      gamma: 5.0624999999999998e-01
   C: 1.2500000000000000e+01
   term_criteria: { epsilon:1.1920928955078125e-07, iterations:1000 }
   var_count: 324
   class_count: 8
   class_labels: !!opencv-matrix
      rows: 8
      cols: 1
      dt: i
      data: [ 0, 1, 2, 3, 4, 5, 6, 7 ]
   sv_total: 509
   support_vectors:
      - [ 3.68228048e-01, 5.57946265e-01, 2.48017814e-02, 5.80979325e-03,
          8.96473974e-02, 6.10050738e-01, 4.06316340e-01, 1.42753795e-02,
          2.94732135e-02, 1.30534142e-01, 4.29176897e-01, 4.29176897e-01,
          3.35330069e-01, 3.33913743e-01, 4.29176897e-01, 4.16811615e-01,
          1.64588094e-01, 3.64615917e-02, 1.39612645e-01, 3.68688434e-01,
          3.68688434e-01, 3.68688434e-01, 3.68688434e-01, 2.75893003e-01,
          3.68688434e-01, 3.68688434e-01, 2.91754901e-01, 2.87374079e-01,
          1.41163513e-01, 3.05160675e-02, 5.56261763e-02, 1.39919028e-01,
          5.18801570e-01, 5.18801570e-01, 4.29349512e-01, 3.82169813e-01,
          2.76835412e-01, 4.84816074e-01, 4.84816074e-01, 2.37636358e-01,
          1.31511897e-01, 2.25929752e-01, 3.60546827e-01, 3.64559293e-01,
          2.46411309e-01, 3.44038427e-01, 2.22852185e-01, 3.44038427e-01,
          3.44038427e-01, 3.44038427e-01, 3.44038427e-01, 3.44038427e-01,
          3.44038427e-01, 3.44038427e-01, 4.69270423e-02, 5.65892011e-02,
          9.75449979e-02, 9.91410017e-02, 2.42988095e-01, 4.81595069e-01,
          5.80102384e-01, 5.80102384e-01, 7.37860277e-02, 4.08551186e-01,
          4.08551186e-01, 4.08551186e-01, 3.63715559e-01, 3.72949868e-01,
          3.59901547e-01, 2.77432323e-01, 9.10955667e-02, 9.48662832e-02,
          3.62052828e-01, 3.62052828e-01, 2.17735827e-01, 3.62052828e-01,
          3.62052828e-01, 3.62052828e-01, 2.54749030e-01, 3.12383294e-01,
          3.62052828e-01, 4.69270423e-02, 5.65892011e-02, 9.75449979e-02,
          9.91410017e-02, 2.42988095e-01, 4.81595069e-01, 5.80102384e-01,
          5.80102384e-01, 7.37860277e-02, 4.08551186e-01, 4.08551186e-01,
          4.08551186e-01, 3.63715559e-01, 3.72949868e-01, 3.59901547e-01,
          2.77432323e-01, 9.10955667e-02, 9.48662832e-02, 3.62052828e-01,
          3.62052828e-01, 2.17735827e-01, 3.62052828e-01, 3.62052828e-01,
          3.62052828e-01, 2.54749030e-01, 3.12383294e-01, 3.62052828e-01,
          6.83504865e-02, 2.02131998e-02, 4.20220234e-02, 1.71003297e-01,
          4.48424481e-02, 1.83395762e-02, 4.69398320e-01, 6.06290400e-01,
          6.06290400e-01, 3.13326448e-01, 4.60319102e-01, 4.60319102e-01,
          4.60319102e-01, 3.84713821e-02, 1.10179007e-01, 2.30537087e-01,
          3.99925381e-01, 1.86655968e-01, 3.42218250e-01, 3.42218250e-01,
          3.42218250e-01, 3.42218250e-01, 2.95400441e-01, 3.42218250e-01,
          2.99209207e-01, 3.42218250e-01, 3.42218250e-01, 8.96203145e-03,
          6.90878183e-03, 2.27905661e-01, 5.60255229e-01, 1.78394206e-02,
          1.48082767e-02, 1.18710250e-02, 5.60255229e-01, 5.60255229e-01,
          3.57467681e-01, 4.09838349e-01, 4.09838349e-01, 4.06392962e-01,
          8.02903175e-02, 1.04949623e-01, 1.16776288e-01, 4.09838349e-01,
          4.09838349e-01, 3.48253936e-01, 3.12675923e-01, 3.48253936e-01,
          3.48253936e-01, 3.48253936e-01, 3.48253936e-01, 3.48253936e-01,
          2.23133564e-01, 3.48253936e-01, 1.39612645e-01, 3.68688434e-01,
          3.68688434e-01, 3.68688434e-01, 3.68688434e-01, 2.75893003e-01,
          3.68688434e-01, 3.68688434e-01, 2.91754901e-01, 8.13630223e-02,
          2.06230968e-01, 3.92152637e-01, 3.92152637e-01, 3.40520382e-01,
          3.86995494e-01, 3.92152637e-01, 3.92152637e-01, 2.57054329e-01,
          7.09058195e-02, 2.30374485e-02, 4.90738004e-01, 4.90738004e-01,
          5.62038794e-02, 3.69049013e-02, 1.47391468e-01, 4.90738004e-01,
          4.90738004e-01, 3.44038427e-01, 2.22852185e-01, 3.44038427e-01,
          3.44038427e-01, 3.44038427e-01, 3.44038427e-01, 3.44038427e-01,
          3.44038427e-01, 3.44038427e-01, 3.85173410e-01, 4.76171002e-02,
          1.03490077e-01, 3.04996878e-01, 3.85173410e-01, 3.85173410e-01,
          3.85173410e-01, 3.85173410e-01, 3.85173410e-01, 7.06853792e-02,
          1.33217707e-01, 5.95947504e-01, 5.95947504e-01, 3.21511388e-01,
          7.02653676e-02, 1.50959566e-01, 2.93760687e-01, 2.08825678e-01,
          3.62052828e-01, 3.62052828e-01, 2.17735827e-01, 3.62052828e-01,
          3.62052828e-01, 3.62052828e-01, 2.54749030e-01, 3.12383294e-01,
          3.62052828e-01, 1.70491740e-01, 5.18181995e-02, 1.25000894e-01,
          4.17391986e-01, 4.17391986e-01, 2.78158695e-01, 4.17391986e-01,
          4.17391986e-01, 4.17391986e-01, 6.67965272e-04, 5.46302259e-01,
          5.46302259e-01, 2.09008902e-01, 2.88958132e-01, 3.20583045e-01,
          3.64778548e-01, 1.85527951e-01, 1.45799201e-02, 3.62052828e-01,
          3.62052828e-01, 2.17735827e-01, 3.62052828e-01, 3.62052828e-01,
          3.62052828e-01, 2.54749030e-01, 3.12383294e-01, 3.62052828e-01,
          1.70491740e-01, 5.18181995e-02, 1.25000894e-01, 4.17391986e-01,
          4.17391986e-01, 2.78158695e-01, 4.17391986e-01, 4.17391986e-01,
          4.17391986e-01, 6.67965272e-04, 5.46302259e-01, 5.46302259e-01,
          2.09008902e-01, 2.88958132e-01, 3.20583045e-01, 3.64778548e-01,
          1.85527951e-01, 1.45799201e-02, 3.42218250e-01, 3.42218250e-01,
          3.42218250e-01, 3.42218250e-01, 2.95400441e-01, 3.42218250e-01,
          2.99209207e-01, 3.42218250e-01, 3.42218250e-01, 2.61899084e-01,
          3.93694490e-01, 2.49418825e-01, 2.38659874e-01, 1.05125107e-01,
          4.14366245e-01, 4.14366245e-01, 4.14366245e-01, 3.56309325e-01,
          1.59878612e-01, 5.03142118e-01, 5.03142118e-01, 9.50373430e-03,
          4.45927903e-02, 5.97285815e-02, 4.42921460e-01, 5.03142118e-01,
          9.01776031e-02, 3.48253936e-01, 3.12675923e-01, 3.48253936e-01,
          3.48253936e-01, 3.48253936e-01, 3.48253936e-01, 3.48253936e-01,
          2.23133564e-01, 3.48253936e-01, 3.06453139e-01, 2.62170285e-01,
          5.57526052e-02, 8.19004774e-02, 4.05828297e-01, 4.05828297e-01,
          4.05828297e-01, 4.05828297e-01, 4.05828297e-01, 5.46727657e-01,
          5.46727657e-01, 1.09042250e-01, 2.11439729e-02, 7.06877559e-02,
          5.46727657e-01, 2.48495877e-01, 1.01985894e-01, 9.12218764e-02 ]
      - [ 4.61875290e-01, 1.11945592e-01, 1.22745529e-01, 3.19817401e-02,
          1.98129967e-01, 4.61875290e-01, 4.61875290e-01, 2.72387236e-01,
          4.61875290e-01, 2.64302164e-01, 4.69072551e-01, 4.69072551e-01,
          1.36429310e-01, 4.69072551e-01, 4.69072551e-01, 1.37612522e-01,
          6.63531646e-02, 5.82244657e-02, 4.30210650e-01, 4.30210650e-01,
          4.30210650e-01, 8.87215734e-02, 3.48349988e-01, 1.87738821e-01,
          2.26872101e-01, 1.98599368e-01, 4.30210650e-01, 3.35873425e-01,
          3.75724614e-01, 1.65241688e-01, 5.77182025e-02, 1.02518328e-01,
          5.86508930e-01, 5.86508930e-01, 9.06353369e-02, 5.30775264e-02,
          8.82818624e-02, 6.81400478e-01, 6.81400478e-01, 6.82898313e-02,
          7.42886290e-02, 1.93074048e-01, 8.44470933e-02, 4.57326286e-02,
          1.03932144e-02, 1.40210958e-02, 6.34464443e-01, 6.34464443e-01,
          9.80576407e-03, 2.08449643e-03, 1.27378581e-02, 4.01752830e-01,
          1.63375810e-01, 4.33928333e-03, 1.95410654e-01, 3.03707361e-01,
          2.34994128e-01, 1.80011302e-01, 1.30149394e-01, 2.19972521e-01,
          5.92768490e-01, 5.92768490e-01, 8.91946033e-02, 2.64117159e-02,
          7.00223982e-01, 7.00223982e-01, 6.70142025e-02, 8.41461122e-03,
          2.72913417e-03, 5.97301088e-02, 3.96673009e-02, 4.44403701e-02,
          1.01389992e-03, 6.62669241e-01, 6.62669241e-01, 1.15902042e-02,
          1.16385476e-04, 1.08844170e-03, 3.13699394e-01, 1.28756061e-01,
          1.09753630e-03, 1.95410654e-01, 3.03707361e-01, 2.34994128e-01,
          1.80011302e-01, 1.30149394e-01, 2.19972521e-01, 5.92768490e-01,
          5.92768490e-01, 8.91946033e-02, 2.64117159e-02, 7.00223982e-01,
          7.00223982e-01, 6.70142025e-02, 8.41461122e-03, 2.72913417e-03,
          5.97301088e-02, 3.96673009e-02, 4.44403701e-02, 1.01389992e-03,
          6.62669241e-01, 6.62669241e-01, 1.15902042e-02, 1.16385476e-04,
          1.08844170e-03, 3.13699394e-01, 1.28756061e-01, 1.09753630e-03,
          1.41046137e-01, 1.87242910e-01, 2.02944472e-01, 3.60271096e-01,
          1.50680423e-01, 4.13570516e-02, 2.85802186e-01, 5.75421810e-01,
          5.75421810e-01, 1.16541043e-01, 5.15947163e-01, 5.42456686e-01,
          1.45079434e-01, 6.74370602e-02, 2.68798713e-02, 3.10716666e-02,
          3.93816620e-01, 4.88021523e-01, 3.18017742e-03, 6.16042972e-01,
          7.32139409e-01, 6.64301068e-02, 9.90921631e-02, 3.17647569e-02,
          2.28542507e-01, 9.73679349e-02, 1.38416486e-02, 1.14143461e-01,
          1.89707309e-01, 5.40407263e-02, 3.20347399e-01, 4.54545796e-01,
          4.54545796e-01, 1.20215736e-01, 4.54545796e-01, 4.54545796e-01,
          2.59153694e-01, 3.53904694e-01, 3.94121617e-01, 3.94121617e-01,
          3.94121617e-01, 1.37208119e-01, 9.03780013e-02, 3.94121617e-01,
          3.94121617e-01, 1.28457397e-01, 3.87463450e-01, 4.26659554e-01,
          4.26659554e-01, 4.26659554e-01, 4.26659554e-01, 2.66628563e-01,
          1.57826096e-01, 7.03940317e-02, 4.30210650e-01, 4.30210650e-01,
          4.30210650e-01, 8.87215734e-02, 3.48349988e-01, 1.87738821e-01,
          2.26872101e-01, 1.98599368e-01, 4.30210650e-01, 1.58124760e-01,
          6.73403032e-03, 4.32347916e-02, 4.01402712e-01, 4.83883619e-01,
          1.94354072e-01, 4.83883619e-01, 4.83883619e-01, 2.58691072e-01,
          4.34035324e-02, 9.87999588e-02, 4.59349990e-01, 5.89572966e-01,
          5.89572966e-01, 1.04415670e-01, 2.03360468e-01, 1.49635822e-01,
          4.02973779e-02, 1.40210958e-02, 6.34464443e-01, 6.34464443e-01,
          9.80576407e-03, 2.08449643e-03, 1.27378581e-02, 4.01752830e-01,
          1.63375810e-01, 4.33928333e-03, 7.01023499e-03, 2.45615393e-02,
          1.18577436e-01, 1.92137342e-02, 3.23764817e-03, 1.33673502e-02,
          6.99194849e-01, 6.99194849e-01, 1.41311286e-03, 7.22574443e-02,
          1.89307258e-01, 4.24876183e-01, 4.24876183e-01, 4.24876183e-01,
          2.17624456e-01, 4.24876183e-01, 4.24876183e-01, 6.88342154e-02,
          1.01389992e-03, 6.62669241e-01, 6.62669241e-01, 1.15902042e-02,
          1.16385476e-04, 1.08844170e-03, 3.13699394e-01, 1.28756061e-01,
          1.09753630e-03, 4.61403187e-03, 2.73830537e-02, 5.59757650e-02,
          2.07634154e-03, 9.48388260e-05, 1.33179710e-03, 7.03230977e-01,
          7.03230977e-01, 1.42021617e-03, 4.58224975e-02, 2.81549960e-01,
          4.75105226e-01, 2.16029808e-02, 7.33342320e-02, 9.98296067e-02,
          5.78387201e-01, 5.78387201e-01, 4.74912561e-02, 1.01389992e-03,
          6.62669241e-01, 6.62669241e-01, 1.15902042e-02, 1.16385476e-04,
          1.08844170e-03, 3.13699394e-01, 1.28756061e-01, 1.09753630e-03,
          4.61403187e-03, 2.73830537e-02, 5.59757650e-02, 2.07634154e-03,
          9.48388260e-05, 1.33179710e-03, 7.03230977e-01, 7.03230977e-01,
          1.42021617e-03, 4.58224975e-02, 2.81549960e-01, 4.75105226e-01,
          2.16029808e-02, 7.33342320e-02, 9.98296067e-02, 5.78387201e-01,
          5.78387201e-01, 4.74912561e-02, 3.18017742e-03, 6.16042972e-01,
          7.32139409e-01, 6.64301068e-02, 9.90921631e-02, 3.17647569e-02,
          2.28542507e-01, 9.73679349e-02, 1.38416486e-02, 2.43452359e-02,
          1.22374501e-02, 5.54350242e-02, 1.79551486e-02, 4.79278341e-02,
          6.09025396e-02, 7.00922072e-01, 7.00922072e-01, 1.65974498e-02,
          4.51955378e-01, 4.51955378e-01, 3.01363587e-01, 5.17631806e-02,
          1.61631748e-01, 1.89243481e-01, 4.51955378e-01, 4.46164310e-01,
          1.67912364e-01, 1.28457397e-01, 3.87463450e-01, 4.26659554e-01,
          4.26659554e-01, 4.26659554e-01, 4.26659554e-01, 2.66628563e-01,
          1.57826096e-01, 7.03940317e-02, 3.11871737e-01, 1.66977346e-01,
          2.42538735e-01, 2.56153613e-01, 4.13093150e-01, 4.13093150e-01,
          4.13093150e-01, 4.13093150e-01, 2.52397358e-01, 4.90613222e-01,
          4.90613222e-01, 3.76293212e-01, 1.31404027e-01, 1.34363785e-01,
          1.06213681e-01, 2.57271379e-01, 1.36413515e-01, 4.90613222e-01 ]
      - [ 4.96392876e-01, 4.07132745e-01, 1.76641166e-01, 7.46287629e-02,
          3.51240426e-01, 3.19406450e-01, 2.29559168e-01, 1.47017449e-01,
          4.96392876e-01, 4.87198651e-01, 3.08398038e-01, 2.85448223e-01,
          9.58761126e-02, 4.05148566e-01, 4.87198651e-01, 3.15350264e-01,
          1.02467366e-01, 2.46040389e-01, 3.18131894e-01, 2.41257295e-01,
          3.40627551e-01, 3.84541936e-02, 3.79286706e-01, 3.79286706e-01,
          3.79286706e-01, 3.79286706e-01, 3.79286706e-01, 2.16721267e-01,
          3.21846753e-01, 1.81294337e-01, 1.28789514e-01, 5.42680860e-01,
          5.42680860e-01, 2.10859090e-01, 1.34067386e-01, 3.78327936e-01,
          1.47220284e-01, 2.83985853e-01, 2.85518438e-01, 9.32096094e-02,
          5.56452632e-01, 5.56452632e-01, 3.90789419e-01, 6.78786039e-02,
          1.59090519e-01, 2.65650719e-01, 1.14376254e-01, 1.74539611e-01,
          7.83327594e-02, 4.82553095e-01, 4.82553095e-01, 3.57624710e-01,
          2.20136508e-01, 4.82553095e-01, 4.34830815e-01, 4.34830815e-01,
          2.15316132e-01, 1.43213719e-01, 4.34830815e-01, 3.17709953e-01,
          2.85832584e-01, 2.71813542e-01, 3.24081928e-01, 4.75492060e-01,
          1.64213657e-01, 1.84581280e-01, 1.27518117e-01, 3.91223013e-01,
          1.66323766e-01, 4.75492060e-01, 2.42809519e-01, 4.75492060e-01,
          5.35421073e-01, 1.58812001e-01, 4.78771627e-02, 1.21025816e-01,
          4.87664580e-01, 2.17077106e-01, 1.99956879e-01, 2.32849330e-01,
          5.35421073e-01, 4.34830815e-01, 4.34830815e-01, 2.15316132e-01,
          1.43213719e-01, 4.34830815e-01, 3.17709953e-01, 2.85832584e-01,
          2.71813542e-01, 3.24081928e-01, 4.75492060e-01, 1.64213657e-01,
          1.84581280e-01, 1.27518117e-01, 3.91223013e-01, 1.66323766e-01,
          4.75492060e-01, 2.42809519e-01, 4.75492060e-01, 5.35421073e-01,
          1.58812001e-01, 4.78771627e-02, 1.21025816e-01, 4.87664580e-01,
          2.17077106e-01, 1.99956879e-01, 2.32849330e-01, 5.35421073e-01,
          1.97401240e-01, 2.03771800e-01, 1.77864954e-01, 4.99854833e-01,
          6.12074018e-01, 3.40455055e-01, 2.91437238e-01, 1.31579503e-01,
          1.97774023e-01, 4.81305510e-01, 2.86440045e-01, 2.54291475e-01,
          2.77287185e-01, 4.81305510e-01, 3.13982129e-01, 4.22040790e-01,
          6.92877993e-02, 1.63641497e-01, 1.65395319e-01, 8.03296342e-02,
          1.59537792e-01, 2.71616518e-01, 4.73367453e-01, 4.73367453e-01,
          4.52574193e-01, 3.64951611e-01, 2.75806218e-01, 3.57003450e-01,
          1.23757772e-01, 4.18042988e-01, 4.38252270e-01, 4.38252270e-01,
          3.46427828e-01, 3.12107533e-01, 1.78803787e-01, 2.11117521e-01,
          4.47824776e-01, 4.47824776e-01, 1.34550139e-01, 2.90260285e-01,
          4.47824776e-01, 4.47824776e-01, 2.59448498e-01, 4.78693247e-02,
          1.46215454e-01, 4.35235709e-01, 3.53460073e-01, 6.89624995e-02,
          1.88617095e-01, 4.35235709e-01, 4.35235709e-01, 4.35235709e-01,
          3.56128365e-02, 2.67202944e-01, 3.18131894e-01, 2.41257295e-01,
          3.40627551e-01, 3.84541936e-02, 3.79286706e-01, 3.79286706e-01,
          3.79286706e-01, 3.79286706e-01, 3.79286706e-01, 3.69063526e-01,
          3.03232819e-01, 3.69063526e-01, 1.26440078e-01, 3.69063526e-01,
          2.66699016e-01, 3.69063526e-01, 3.69063526e-01, 3.69063526e-01,
          3.71731609e-01, 2.62045801e-01, 2.24926293e-01, 3.71731609e-01,
          3.71731609e-01, 2.18906462e-01, 3.71731609e-01, 3.71731609e-01,
          3.71731609e-01, 2.65650719e-01, 1.14376254e-01, 1.74539611e-01,
          7.83327594e-02, 4.82553095e-01, 4.82553095e-01, 3.57624710e-01,
          2.20136508e-01, 4.82553095e-01, 2.47064129e-01, 2.72080660e-01,
          4.17677313e-01, 6.15149438e-02, 4.17677313e-01, 4.17677313e-01,
          4.17677313e-01, 3.46982777e-01, 1.96876958e-01, 2.94427961e-01,
          4.53068107e-01, 3.07423860e-01, 5.61466552e-02, 1.46871090e-01,
          4.53068107e-01, 4.53068107e-01, 4.10709262e-01, 7.11299181e-02,
          5.35421073e-01, 1.58812001e-01, 4.78771627e-02, 1.21025816e-01,
          4.87664580e-01, 2.17077106e-01, 1.99956879e-01, 2.32849330e-01,
          5.35421073e-01, 1.67699113e-01, 2.28646204e-01, 6.12919442e-02,
          8.08075815e-02, 4.19707775e-01, 4.55550015e-01, 4.55550015e-01,
          4.55550015e-01, 3.25620890e-01, 3.20536941e-01, 4.87649411e-01,
          3.09462845e-01, 6.08557798e-02, 2.10199237e-01, 4.87649411e-01,
          4.87649411e-01, 1.71208322e-01, 7.75430053e-02, 5.35421073e-01,
          1.58812001e-01, 4.78771627e-02, 1.21025816e-01, 4.87664580e-01,
          2.17077106e-01, 1.99956879e-01, 2.32849330e-01, 5.35421073e-01,
          1.67699113e-01, 2.28646204e-01, 6.12919442e-02, 8.08075815e-02,
          4.19707775e-01, 4.55550015e-01, 4.55550015e-01, 4.55550015e-01,
          3.25620890e-01, 3.20536941e-01, 4.87649411e-01, 3.09462845e-01,
          6.08557798e-02, 2.10199237e-01, 4.87649411e-01, 4.87649411e-01,
          1.71208322e-01, 7.75430053e-02, 1.65395319e-01, 8.03296342e-02,
          1.59537792e-01, 2.71616518e-01, 4.73367453e-01, 4.73367453e-01,
          4.52574193e-01, 3.64951611e-01, 2.75806218e-01, 1.30750939e-01,
          1.47335157e-01, 1.93374529e-01, 1.57123640e-01, 4.83925730e-01,
          4.83925730e-01, 4.83925730e-01, 3.06060553e-01, 3.13139379e-01,
          8.11519027e-02, 4.83816236e-01, 4.83816236e-01, 2.49406606e-01,
          2.67440140e-01, 4.83816236e-01, 3.61588269e-01, 1.10019207e-01,
          9.88404527e-02, 4.35235709e-01, 3.53460073e-01, 6.89624995e-02,
          1.88617095e-01, 4.35235709e-01, 4.35235709e-01, 4.35235709e-01,
          3.56128365e-02, 2.67202944e-01, 4.00424302e-01, 4.00424302e-01,
          1.94242850e-01, 1.22513548e-01, 4.00424302e-01, 4.00424302e-01,
          3.33803743e-01, 1.73599437e-01, 4.00424302e-01, 2.51170903e-01,
          4.10803407e-01, 4.10803407e-01, 4.10803407e-01, 1.26347780e-01,
          2.44560182e-01, 1.15059212e-01, 4.10803407e-01, 4.10803407e-01 ]
      - [ 4.45780843e-01, 4.45780843e-01, 4.45780843e-01, 6.40703142e-02,
          2.60677487e-02, 1.69256628e-02, 2.39278689e-01, 3.71940196e-01,
          4.45780843e-01, 5.55747569e-01, 5.51033989e-02, 4.79183905e-02,
          2.51430310e-02, 5.68105765e-02, 1.96535420e-02, 2.41465732e-01,
          5.55747569e-01, 5.55747569e-01, 5.07470965e-01, 2.02586800e-02,
          2.61343271e-02, 1.59604121e-02, 3.58079731e-01, 7.40731061e-02,
          2.95457900e-01, 5.07470965e-01, 5.07470965e-01, 3.09151914e-02,
          5.19968033e-01, 7.03005493e-01, 4.72083390e-01, 3.08021791e-02,
          3.30979526e-02, 3.50984074e-02, 2.02225689e-02, 2.99246740e-02,
          1.81330562e-01, 1.44760296e-01, 7.56727606e-02, 2.81819999e-02,
          3.82015318e-01, 6.26501381e-01, 6.26501381e-01, 4.04699966e-02,
          2.83993930e-02, 5.05831540e-01, 9.76217389e-02, 8.39932449e-03,
          2.59053826e-01, 5.05831540e-01, 5.05831540e-01, 1.20924197e-01,
          2.06766445e-02, 3.68228137e-01, 1.57563761e-02, 2.63777941e-01,
          6.59797490e-01, 6.59797490e-01, 1.88299846e-02, 1.13486173e-02,
          2.05776840e-01, 9.59958658e-02, 2.96291765e-02, 1.19108640e-01,
          4.44481850e-01, 4.44481850e-01, 2.24967152e-02, 8.56591761e-03,
          4.44481850e-01, 4.44481850e-01, 4.36504990e-01, 8.62509070e-04,
          4.36443239e-01, 4.36443239e-01, 4.36443239e-01, 6.54813573e-02,
          1.50023311e-01, 3.29065979e-01, 3.05157602e-01, 7.42235109e-02,
          4.36443239e-01, 1.57563761e-02, 2.63777941e-01, 6.59797490e-01,
          6.59797490e-01, 1.88299846e-02, 1.13486173e-02, 2.05776840e-01,
          9.59958658e-02, 2.96291765e-02, 1.19108640e-01, 4.44481850e-01,
          4.44481850e-01, 2.24967152e-02, 8.56591761e-03, 4.44481850e-01,
          4.44481850e-01, 4.36504990e-01, 8.62509070e-04, 4.36443239e-01,
          4.36443239e-01, 4.36443239e-01, 6.54813573e-02, 1.50023311e-01,
          3.29065979e-01, 3.05157602e-01, 7.42235109e-02, 4.36443239e-01,
          8.40523317e-02, 7.82628059e-02, 6.27163291e-01, 6.27163291e-01,
          3.50868143e-02, 6.19775290e-03, 1.75507203e-01, 3.89025897e-01,
          1.02310628e-01, 4.66945581e-03, 1.10227026e-01, 4.86363560e-01,
          4.86363560e-01, 2.24507619e-02, 1.13523211e-02, 4.86363560e-01,
          4.86363560e-01, 1.90103769e-01, 4.62964997e-02, 1.70983925e-01,
          4.61749762e-01, 4.61749762e-01, 4.61749762e-01, 1.17059775e-01,
          1.76073924e-01, 4.61749762e-01, 2.57784069e-01, 1.17729858e-01,
          1.45505518e-01, 4.81116056e-01, 4.81116056e-01, 4.06379402e-01,
          1.81229129e-01, 1.99382141e-01, 4.81116056e-01, 1.67341098e-01,
          1.37803005e-03, 5.43122320e-03, 2.22229928e-01, 5.73671520e-01,
          2.89838582e-01, 5.07312920e-03, 8.24226215e-02, 5.73671520e-01,
          4.42527264e-01, 4.45292711e-01, 9.84828686e-04, 1.95453893e-02,
          4.45292711e-01, 4.45292711e-01, 6.09235503e-02, 5.41060045e-03,
          4.45292711e-01, 4.45292711e-01, 5.07470965e-01, 2.02586800e-02,
          2.61343271e-02, 1.59604121e-02, 3.58079731e-01, 7.40731061e-02,
          2.95457900e-01, 5.07470965e-01, 5.07470965e-01, 4.25040543e-01,
          4.25040543e-01, 4.25040543e-01, 9.47356224e-02, 1.28351718e-01,
          3.57393734e-02, 2.56379485e-01, 4.25040543e-01, 4.25040543e-01,
          4.97072279e-01, 4.97072279e-01, 4.97072279e-01, 1.99014634e-01,
          5.88291809e-02, 6.96967095e-02, 3.10750693e-01, 2.51492471e-01,
          2.14600250e-01, 5.05831540e-01, 9.76217389e-02, 8.39932449e-03,
          2.59053826e-01, 5.05831540e-01, 5.05831540e-01, 1.20924197e-01,
          2.06766445e-02, 3.68228137e-01, 3.01633269e-01, 5.56126125e-02,
          1.98726431e-01, 5.27896345e-01, 5.27896345e-01, 2.91003436e-02,
          1.76244248e-02, 1.54852390e-01, 5.27896345e-01, 9.28151235e-02,
          2.08876997e-01, 6.33437097e-01, 6.33437097e-01, 2.31976628e-01,
          4.67359796e-02, 1.51832595e-01, 2.12817878e-01, 1.20848499e-01,
          4.36443239e-01, 4.36443239e-01, 4.36443239e-01, 6.54813573e-02,
          1.50023311e-01, 3.29065979e-01, 3.05157602e-01, 7.42235109e-02,
          4.36443239e-01, 2.27100998e-01, 4.31110002e-02, 4.31824058e-01,
          4.31824058e-01, 8.96171182e-02, 4.31483015e-02, 4.31824058e-01,
          4.31824058e-01, 4.31824058e-01, 1.49207993e-03, 2.72895098e-01,
          5.22360265e-01, 5.22360265e-01, 9.80686489e-03, 6.94598407e-02,
          4.13325101e-01, 4.44433659e-01, 3.61811705e-02, 4.36443239e-01,
          4.36443239e-01, 4.36443239e-01, 6.54813573e-02, 1.50023311e-01,
          3.29065979e-01, 3.05157602e-01, 7.42235109e-02, 4.36443239e-01,
          2.27100998e-01, 4.31110002e-02, 4.31824058e-01, 4.31824058e-01,
          8.96171182e-02, 4.31483015e-02, 4.31824058e-01, 4.31824058e-01,
          4.31824058e-01, 1.49207993e-03, 2.72895098e-01, 5.22360265e-01,
          5.22360265e-01, 9.80686489e-03, 6.94598407e-02, 4.13325101e-01,
          4.44433659e-01, 3.61811705e-02, 4.62964997e-02, 1.70983925e-01,
          4.61749762e-01, 4.61749762e-01, 4.61749762e-01, 1.17059775e-01,
          1.76073924e-01, 4.61749762e-01, 2.57784069e-01, 1.95215344e-01,
          4.01963085e-01, 3.97913814e-01, 6.96898177e-02, 4.01963085e-01,
          4.01963085e-01, 4.01963085e-01, 3.84444356e-01, 2.42613275e-02,
          8.90589878e-02, 4.89851922e-01, 4.89851922e-01, 2.47876719e-02,
          9.11677256e-03, 4.89851922e-01, 4.89851922e-01, 1.63233936e-01,
          3.68911331e-03, 4.45292711e-01, 9.84828686e-04, 1.95453893e-02,
          4.45292711e-01, 4.45292711e-01, 6.09235503e-02, 5.41060045e-03,
          4.45292711e-01, 4.45292711e-01, 4.52242702e-01, 4.52242702e-01,
          2.06954330e-02, 4.80208658e-02, 4.52242702e-01, 4.52242702e-01,
          4.43819836e-02, 8.97034258e-03, 4.15456563e-01, 3.81364614e-01,
          5.46425045e-01, 1.45533726e-01, 2.93331384e-03, 1.90569803e-01,
          5.46425045e-01, 4.40694869e-01, 9.24393442e-03, 1.18679544e-02 ]
      - [ 6.76707566e-01, 6.76707566e-01, 1.99867427e-01, 5.78160696e-02,
          2.43810494e-03, 1.82973761e-02, 8.77291039e-02, 2.53833290e-02,
          1.59395620e-01, 5.01048446e-01, 5.01048446e-01, 1.80100664e-01,
          3.26572746e-01, 1.55486196e-01, 2.42019355e-01, 2.73062497e-01,
          4.96276096e-02, 4.40494388e-01, 6.79485381e-01, 8.12073722e-02,
          1.61967337e-01, 1.81445360e-01, 3.71102393e-02, 2.41084974e-02,
          1.18191438e-02, 4.43558879e-02, 6.79485381e-01, 3.91681761e-01,
          3.91681761e-01, 3.91681761e-01, 3.91681761e-01, 1.62233621e-01,
          5.34663722e-02, 2.15455249e-01, 3.91681761e-01, 3.91681761e-01,
          2.48226225e-01, 2.51821637e-01, 3.73243749e-01, 3.73243749e-01,
          2.93936282e-01, 3.73243749e-01, 3.73243749e-01, 3.73243749e-01,
          2.97132671e-01, 2.06514701e-01, 3.46389353e-01, 6.17665112e-01,
          6.17665112e-01, 1.01307280e-01, 6.85961992e-02, 1.11310855e-01,
          1.14453092e-01, 1.66494265e-01, 2.64272749e-01, 4.71471876e-01,
          4.71471876e-01, 1.30190119e-01, 4.86127883e-02, 2.53452156e-02,
          1.27878129e-01, 4.71471876e-01, 4.71471876e-01, 1.41021565e-01,
          8.86776671e-02, 3.90000254e-01, 4.22899663e-01, 1.62052393e-01,
          1.23426333e-01, 4.45481062e-01, 4.45481062e-01, 4.45481062e-01,
          1.84191078e-01, 8.89771432e-02, 5.24219394e-01, 5.24219394e-01,
          5.24219394e-01, 8.24806467e-02, 1.59573793e-01, 1.99048728e-01,
          2.37941802e-01, 2.64272749e-01, 4.71471876e-01, 4.71471876e-01,
          1.30190119e-01, 4.86127883e-02, 2.53452156e-02, 1.27878129e-01,
          4.71471876e-01, 4.71471876e-01, 1.41021565e-01, 8.86776671e-02,
          3.90000254e-01, 4.22899663e-01, 1.62052393e-01, 1.23426333e-01,
          4.45481062e-01, 4.45481062e-01, 4.45481062e-01, 1.84191078e-01,
          8.89771432e-02, 5.24219394e-01, 5.24219394e-01, 5.24219394e-01,
          8.24806467e-02, 1.59573793e-01, 1.99048728e-01, 2.37941802e-01,
          4.89445813e-02, 1.97269782e-01, 6.78142369e-01, 6.78142369e-01,
          9.26743075e-02, 4.34803329e-02, 1.25495464e-01, 6.90580159e-02,
          3.41745578e-02, 1.76096290e-01, 2.97739711e-02, 1.85028419e-01,
          1.71127379e-01, 6.84264898e-02, 6.89871833e-02, 5.44580460e-01,
          5.44580460e-01, 5.44580460e-01, 3.96456540e-01, 4.39347066e-02,
          3.65524441e-01, 3.96456540e-01, 3.96456540e-01, 2.74566680e-01,
          1.79703459e-01, 3.52291763e-01, 3.96456540e-01, 1.03841789e-01,
          4.80453558e-02, 6.88938737e-01, 6.88938737e-01, 1.60830200e-01,
          3.11526638e-02, 3.42852436e-03, 1.05777532e-02, 6.16246015e-02,
          1.92218229e-01, 2.80220769e-02, 6.06679805e-02, 5.70762932e-01,
          5.70762932e-01, 5.31925000e-02, 4.68984321e-02, 2.85681218e-01,
          4.63361204e-01, 5.04798412e-01, 6.17197603e-02, 8.30970109e-02,
          4.40300465e-01, 5.04798412e-01, 1.12789162e-01, 5.94629571e-02,
          9.82748121e-02, 5.04798412e-01, 6.79485381e-01, 8.12073722e-02,
          1.61967337e-01, 1.81445360e-01, 3.71102393e-02, 2.41084974e-02,
          1.18191438e-02, 4.43558879e-02, 6.79485381e-01, 6.36541903e-01,
          3.61320516e-03, 1.89971877e-03, 1.20504701e-03, 3.85103142e-03,
          1.79700763e-03, 2.79543754e-02, 3.44083309e-01, 6.84666753e-01,
          3.32538754e-01, 5.65681309e-02, 6.21607378e-02, 1.43865170e-02,
          4.60055744e-04, 2.02785488e-02, 2.86141150e-02, 6.61179304e-01,
          6.61179304e-01, 2.06514701e-01, 3.46389353e-01, 6.17665112e-01,
          6.17665112e-01, 1.01307280e-01, 6.85961992e-02, 1.11310855e-01,
          1.14453092e-01, 1.66494265e-01, 4.81622130e-01, 1.21508710e-01,
          1.31654844e-01, 6.70741573e-02, 8.93394202e-02, 2.94506233e-02,
          8.16443712e-02, 4.90406901e-01, 6.84541106e-01, 5.30369878e-02,
          1.33167859e-02, 5.49112353e-03, 4.00752947e-03, 2.16479902e-03,
          4.43629548e-03, 1.05166644e-01, 6.99605405e-01, 6.99605405e-01,
          1.84191078e-01, 8.89771432e-02, 5.24219394e-01, 5.24219394e-01,
          5.24219394e-01, 8.24806467e-02, 1.59573793e-01, 1.99048728e-01,
          2.37941802e-01, 5.77893928e-02, 4.66457419e-02, 1.67591237e-02,
          6.89321041e-01, 6.89321041e-01, 1.69746146e-01, 6.30242303e-02,
          4.51133214e-02, 4.66306768e-02, 4.02366705e-02, 4.62250262e-02,
          5.62928021e-02, 3.00973088e-01, 5.70410490e-01, 2.99282253e-01,
          3.89287949e-01, 5.70410490e-01, 7.03087002e-02, 1.84191078e-01,
          8.89771432e-02, 5.24219394e-01, 5.24219394e-01, 5.24219394e-01,
          8.24806467e-02, 1.59573793e-01, 1.99048728e-01, 2.37941802e-01,
          5.77893928e-02, 4.66457419e-02, 1.67591237e-02, 6.89321041e-01,
          6.89321041e-01, 1.69746146e-01, 6.30242303e-02, 4.51133214e-02,
          4.66306768e-02, 4.02366705e-02, 4.62250262e-02, 5.62928021e-02,
          3.00973088e-01, 5.70410490e-01, 2.99282253e-01, 3.89287949e-01,
          5.70410490e-01, 7.03087002e-02, 3.96456540e-01, 4.39347066e-02,
          3.65524441e-01, 3.96456540e-01, 3.96456540e-01, 2.74566680e-01,
          1.79703459e-01, 3.52291763e-01, 3.96456540e-01, 4.73049551e-01,
          1.11819625e-01, 1.47948965e-01, 4.73049551e-01, 4.73049551e-01,
          2.15932220e-01, 3.28804888e-02, 1.34429201e-01, 4.73049551e-01,
          4.05477434e-01, 2.93897778e-01, 1.76485598e-01, 3.92469049e-01,
          4.05477434e-01, 3.62491876e-01, 3.49175446e-02, 3.13908964e-01,
          4.05477434e-01, 5.04798412e-01, 6.17197603e-02, 8.30970109e-02,
          4.40300465e-01, 5.04798412e-01, 1.12789162e-01, 5.94629571e-02,
          9.82748121e-02, 5.04798412e-01, 4.72296149e-01, 3.45574617e-02,
          5.37180379e-02, 2.60461513e-02, 4.72296149e-01, 4.72296149e-01,
          1.23260044e-01, 2.88230121e-01, 4.72296149e-01, 1.61031976e-01,
          1.14715271e-01, 4.87142541e-02, 1.26417473e-01, 4.33180720e-01,
          4.33180720e-01, 4.33180720e-01, 4.33180720e-01, 4.33180720e-01 ]
      - [ 4.11322266e-01, 3.76636207e-01, 4.11322266e-01, 7.82210454e-02,
          2.65957359e-02, 1.74552381e-01, 4.11322266e-01, 3.74162793e-01,
          4.11322266e-01, 3.20008546e-01, 1.39070898e-01, 1.12012081e-01,
          1.26920603e-02, 8.21460597e-03, 6.36938438e-02, 6.10562623e-01,
          5.98779082e-01, 3.52139771e-01, 4.82399702e-01, 1.84200004e-01,
          1.72940493e-01, 0., 3.38915968e-03, 2.22354773e-02,
          4.82399702e-01, 4.82399702e-01, 4.82399702e-01, 1.61628246e-01,
          4.78422225e-01, 1.47224575e-01, 1.30151793e-01, 4.78422225e-01,
          4.78422225e-01, 4.78422225e-01, 1.21779166e-01, 1.00862831e-02,
          4.60725695e-01, 4.60725695e-01, 2.74754222e-02, 2.10742783e-02,
          2.47694522e-01, 4.44885731e-01, 4.60725695e-01, 2.16016144e-01,
          2.26838320e-01, 5.18890619e-01, 1.78535834e-01, 5.67713045e-02,
          7.67104551e-02, 2.87989855e-01, 5.18890619e-01, 2.05274582e-01,
          1.44972771e-01, 5.18890619e-01, 1.94594935e-01, 4.95751768e-01,
          4.56888974e-01, 1.23969782e-02, 6.78333864e-02, 4.95751768e-01,
          4.95751768e-01, 7.97913820e-02, 1.63407484e-03, 3.91833574e-01,
          3.91833574e-01, 1.61637351e-01, 4.24684137e-02, 2.16688991e-01,
          3.91833574e-01, 3.91833574e-01, 3.91833574e-01, 3.91833574e-01,
          4.04086590e-01, 1.94530636e-01, 1.98817357e-01, 2.00360700e-01,
          4.04086590e-01, 4.04086590e-01, 3.73964161e-01, 2.92327106e-01,
          4.04086590e-01, 1.94594935e-01, 4.95751768e-01, 4.56888974e-01,
          1.23969782e-02, 6.78333864e-02, 4.95751768e-01, 4.95751768e-01,
          7.97913820e-02, 1.63407484e-03, 3.91833574e-01, 3.91833574e-01,
          1.61637351e-01, 4.24684137e-02, 2.16688991e-01, 3.91833574e-01,
          3.91833574e-01, 3.91833574e-01, 3.91833574e-01, 4.04086590e-01,
          1.94530636e-01, 1.98817357e-01, 2.00360700e-01, 4.04086590e-01,
          4.04086590e-01, 3.73964161e-01, 2.92327106e-01, 4.04086590e-01,
          3.89074497e-02, 4.22654301e-01, 4.22654301e-01, 4.22654301e-01,
          1.85988590e-01, 7.19477907e-02, 4.22654301e-01, 4.22654301e-01,
          2.47613996e-01, 4.43616509e-02, 1.48164764e-01, 3.97464246e-01,
          3.97464246e-01, 3.97464246e-01, 3.97464246e-01, 3.97464246e-01,
          3.97464246e-01, 1.55697063e-01, 3.98055017e-01, 1.80535540e-01,
          3.98055017e-01, 3.07933599e-01, 3.98055017e-01, 3.98055017e-01,
          1.56856641e-01, 2.27517724e-01, 3.98055017e-01, 4.51078862e-02,
          1.14670835e-01, 4.43120390e-01, 4.43120390e-01, 4.43120390e-01,
          2.03699350e-01, 3.23016465e-01, 4.43120390e-01, 2.21661568e-01,
          4.67360318e-02, 4.88179959e-02, 1.57933265e-01, 5.20630538e-01,
          5.20630538e-01, 1.43201843e-01, 3.36390257e-01, 4.78019357e-01,
          2.47002497e-01, 8.14423561e-02, 7.55931363e-02, 2.86079854e-01,
          5.09379864e-01, 5.26097834e-01, 5.26097834e-01, 2.15814918e-01,
          1.44089788e-01, 1.42103419e-01, 4.82399702e-01, 1.84200004e-01,
          1.72940493e-01, 0., 3.38915968e-03, 2.22354773e-02,
          4.82399702e-01, 4.82399702e-01, 4.82399702e-01, 3.93121779e-01,
          3.93121779e-01, 3.93121779e-01, 3.93121779e-01, 3.93121779e-01,
          2.10209832e-01, 1.51771873e-01, 3.97667699e-02, 3.93121779e-01,
          1.15250930e-01, 5.04120767e-01, 5.04120767e-01, 5.04120767e-01,
          2.28079662e-01, 1.44494653e-01, 1.99956894e-01, 9.69512761e-02,
          3.11428696e-01, 5.18890619e-01, 1.78535834e-01, 5.67713045e-02,
          7.67104551e-02, 2.87989855e-01, 5.18890619e-01, 2.05274582e-01,
          1.44972771e-01, 5.18890619e-01, 4.01701033e-01, 2.17635974e-01,
          4.01701033e-01, 4.01701033e-01, 2.76115030e-01, 3.62165779e-01,
          2.00497448e-01, 2.35720038e-01, 4.01701033e-01, 2.33638659e-01,
          1.11530021e-01, 4.76215750e-01, 4.76215750e-01, 1.39517188e-01,
          3.34768556e-03, 4.01952267e-02, 4.76215750e-01, 4.76215750e-01,
          4.04086590e-01, 1.94530636e-01, 1.98817357e-01, 2.00360700e-01,
          4.04086590e-01, 4.04086590e-01, 3.73964161e-01, 2.92327106e-01,
          4.04086590e-01, 3.61201733e-01, 3.61201733e-01, 3.61201733e-01,
          3.61201733e-01, 3.61201733e-01, 2.91776270e-01, 2.97361493e-01,
          2.00084537e-01, 3.61201733e-01, 3.04252625e-01, 3.76188695e-01,
          3.76188695e-01, 3.76188695e-01, 9.42905694e-02, 2.14582562e-01,
          3.76188695e-01, 3.76188695e-01, 3.75693828e-01, 4.04086590e-01,
          1.94530636e-01, 1.98817357e-01, 2.00360700e-01, 4.04086590e-01,
          4.04086590e-01, 3.73964161e-01, 2.92327106e-01, 4.04086590e-01,
          3.61201733e-01, 3.61201733e-01, 3.61201733e-01, 3.61201733e-01,
          3.61201733e-01, 2.91776270e-01, 2.97361493e-01, 2.00084537e-01,
          3.61201733e-01, 3.04252625e-01, 3.76188695e-01, 3.76188695e-01,
          3.76188695e-01, 9.42905694e-02, 2.14582562e-01, 3.76188695e-01,
          3.76188695e-01, 3.75693828e-01, 3.98055017e-01, 1.80535540e-01,
          3.98055017e-01, 3.07933599e-01, 3.98055017e-01, 3.98055017e-01,
          1.56856641e-01, 2.27517724e-01, 3.98055017e-01, 3.57232302e-01,
          2.07343534e-01, 3.47272187e-01, 3.57232302e-01, 3.57232302e-01,
          2.78630555e-01, 3.42245728e-01, 3.57232302e-01, 3.57232302e-01,
          3.58812273e-01, 4.19198900e-01, 4.19198900e-01, 2.96827167e-01,
          2.70539105e-01, 4.19198900e-01, 4.19198900e-01, 3.55783626e-02,
          3.98948751e-02, 8.14423561e-02, 7.55931363e-02, 2.86079854e-01,
          5.09379864e-01, 5.26097834e-01, 5.26097834e-01, 2.15814918e-01,
          1.44089788e-01, 1.42103419e-01, 3.98010910e-01, 3.98010910e-01,
          3.98010910e-01, 3.79463464e-01, 3.98010910e-01, 3.98010910e-01,
          2.00965032e-01, 1.13282405e-01, 8.21469948e-02, 4.85432714e-01,
          4.85432714e-01, 3.77639413e-01, 4.34046201e-02, 3.36382687e-01,
          4.85432714e-01, 1.43918350e-01, 2.88187005e-02, 9.50003937e-02 ]
      - [ 3.53981018e-01, 3.09780002e-01, 1.94492996e-01, 1.05950415e-01,
          3.60402077e-01, 6.55546963e-01, 3.85476857e-01, 6.34308532e-02,
          1.04349412e-01, 4.05529559e-01, 4.05529559e-01, 1.58213794e-01,
          3.63143623e-01, 4.05529559e-01, 4.05529559e-01, 3.69901717e-01,
          6.91472366e-02, 1.99044153e-01, 4.83559281e-01, 7.65398517e-02,
          2.21575141e-01, 4.55482095e-01, 4.83559281e-01, 1.66277722e-01,
          5.48618920e-02, 2.46079341e-02, 4.83559281e-01, 3.73576373e-01,
          3.73576373e-01, 3.73576373e-01, 2.20768854e-01, 5.67049310e-02,
          3.73576373e-01, 3.42289031e-01, 3.59659791e-01, 3.73576373e-01,
          2.76488215e-01, 2.68489450e-01, 3.48053843e-01, 3.48053843e-01,
          3.48053843e-01, 3.48053843e-01, 3.48053843e-01, 3.48053843e-01,
          3.48053843e-01, 2.05071941e-01, 5.10481417e-01, 5.10481417e-01,
          5.10481417e-01, 1.16072819e-01, 1.46173328e-01, 1.89930543e-01,
          1.33724689e-01, 2.86841631e-01, 6.27728403e-02, 6.30279005e-01,
          6.30279005e-01, 1.36333495e-01, 3.91063839e-02, 6.73214570e-02,
          2.52680480e-01, 2.77533770e-01, 1.72460780e-01, 7.47910514e-02,
          7.17740133e-02, 3.21842164e-01, 3.02832007e-01, 9.99761820e-02,
          9.89033654e-02, 5.06886601e-01, 5.06886601e-01, 5.05230308e-01,
          2.52218664e-01, 1.01271957e-01, 4.99552697e-01, 4.99552697e-01,
          3.16036403e-01, 3.80046815e-02, 3.98876756e-01, 2.93703288e-01,
          2.74494052e-01, 6.27728403e-02, 6.30279005e-01, 6.30279005e-01,
          1.36333495e-01, 3.91063839e-02, 6.73214570e-02, 2.52680480e-01,
          2.77533770e-01, 1.72460780e-01, 7.47910514e-02, 7.17740133e-02,
          3.21842164e-01, 3.02832007e-01, 9.99761820e-02, 9.89033654e-02,
          5.06886601e-01, 5.06886601e-01, 5.05230308e-01, 2.52218664e-01,
          1.01271957e-01, 4.99552697e-01, 4.99552697e-01, 3.16036403e-01,
          3.80046815e-02, 3.98876756e-01, 2.93703288e-01, 2.74494052e-01,
          7.24653201e-03, 1.99188367e-01, 5.47131479e-01, 5.47131479e-01,
          3.22865732e-02, 1.17910756e-02, 8.78821760e-02, 5.47131479e-01,
          2.18733951e-01, 1.55047596e-01, 4.58090529e-02, 2.70981371e-01,
          4.71079797e-01, 8.60908031e-02, 2.54820753e-02, 4.71079797e-01,
          4.71079797e-01, 4.71079797e-01, 4.81518090e-01, 4.15826216e-02,
          1.68022737e-01, 4.81518090e-01, 3.76731247e-01, 2.73403693e-02,
          1.63386405e-01, 3.16673100e-01, 4.81518090e-01, 4.65689367e-03,
          1.25566404e-02, 4.37054992e-01, 4.89581585e-01, 2.62988210e-01,
          1.02349669e-01, 7.21458346e-02, 4.89581585e-01, 4.89581585e-01,
          2.47038286e-02, 2.39678752e-02, 1.42540812e-01, 5.26681840e-01,
          5.26681840e-01, 3.49993743e-02, 1.63791813e-02, 3.73581141e-01,
          5.26681840e-01, 3.59647870e-01, 1.61134843e-02, 6.63471548e-03,
          5.30906081e-01, 5.30906081e-01, 1.27581507e-01, 3.80666996e-03,
          5.63237406e-02, 5.30906081e-01, 4.83559281e-01, 7.65398517e-02,
          2.21575141e-01, 4.55482095e-01, 4.83559281e-01, 1.66277722e-01,
          5.48618920e-02, 2.46079341e-02, 4.83559281e-01, 2.42042974e-01,
          1.58330314e-02, 6.65150434e-02, 4.94261891e-01, 4.94261891e-01,
          1.96374860e-02, 5.81905898e-03, 4.45533127e-01, 4.94261891e-01,
          8.26648772e-02, 3.95631045e-02, 1.52941480e-01, 4.83739853e-01,
          4.83739853e-01, 5.66610768e-02, 1.55406192e-01, 4.83739853e-01,
          4.83739853e-01, 2.05071941e-01, 5.10481417e-01, 5.10481417e-01,
          5.10481417e-01, 1.16072819e-01, 1.46173328e-01, 1.89930543e-01,
          1.33724689e-01, 2.86841631e-01, 2.98044622e-01, 7.94933289e-02,
          4.18651067e-02, 2.97777504e-01, 1.43253058e-01, 7.11948350e-02,
          6.67812973e-02, 6.23758137e-01, 6.23758137e-01, 3.78724523e-02,
          2.76832767e-02, 1.23243578e-01, 5.58213294e-01, 3.76110971e-02,
          1.51692126e-02, 2.01457202e-01, 5.58213294e-01, 5.58213294e-01,
          2.52218664e-01, 1.01271957e-01, 4.99552697e-01, 4.99552697e-01,
          3.16036403e-01, 3.80046815e-02, 3.98876756e-01, 2.93703288e-01,
          2.74494052e-01, 8.24569166e-02, 4.54055816e-02, 1.08149111e-01,
          6.80491865e-01, 6.80491865e-01, 1.27472281e-01, 1.16780542e-01,
          6.08933233e-02, 1.13651022e-01, 4.48264964e-02, 5.41597642e-02,
          1.19570881e-01, 3.82079273e-01, 5.13088882e-01, 1.13293909e-01,
          5.13088882e-01, 5.13088882e-01, 1.64423525e-01, 2.52218664e-01,
          1.01271957e-01, 4.99552697e-01, 4.99552697e-01, 3.16036403e-01,
          3.80046815e-02, 3.98876756e-01, 2.93703288e-01, 2.74494052e-01,
          8.24569166e-02, 4.54055816e-02, 1.08149111e-01, 6.80491865e-01,
          6.80491865e-01, 1.27472281e-01, 1.16780542e-01, 6.08933233e-02,
          1.13651022e-01, 4.48264964e-02, 5.41597642e-02, 1.19570881e-01,
          3.82079273e-01, 5.13088882e-01, 1.13293909e-01, 5.13088882e-01,
          5.13088882e-01, 1.64423525e-01, 4.81518090e-01, 4.15826216e-02,
          1.68022737e-01, 4.81518090e-01, 3.76731247e-01, 2.73403693e-02,
          1.63386405e-01, 3.16673100e-01, 4.81518090e-01, 4.47762221e-01,
          3.10433824e-02, 5.51423244e-02, 4.47762221e-01, 4.47762221e-01,
          1.45317942e-01, 2.00590193e-02, 4.09926027e-01, 4.47762221e-01,
          3.41455311e-01, 3.41455311e-01, 3.41455311e-01, 3.41455311e-01,
          3.41455311e-01, 3.04816067e-01, 3.41455311e-01, 2.95860440e-01,
          3.41455311e-01, 3.59647870e-01, 1.61134843e-02, 6.63471548e-03,
          5.30906081e-01, 5.30906081e-01, 1.27581507e-01, 3.80666996e-03,
          5.63237406e-02, 5.30906081e-01, 4.11551416e-01, 4.39399518e-02,
          1.72504410e-02, 6.92301393e-02, 4.56463724e-01, 4.56463724e-01,
          3.92169282e-02, 4.38667804e-01, 4.56463724e-01, 3.68893117e-01,
          3.68893117e-01, 1.33096382e-01, 1.61322594e-01, 3.68893117e-01,
          3.68893117e-01, 3.68893117e-01, 3.68893117e-01, 3.68893117e-01 ]
      - [ 4.28195596e-01, 3.13185364e-01, 4.36130688e-02, 1.04028873e-01,
          3.32436889e-01, 4.33847159e-01, 4.33847159e-01, 1.62238017e-01,
          4.33847159e-01, 4.38917220e-01, 4.37173218e-01, 1.03465699e-01,
          5.20696342e-02, 4.38917220e-01, 4.38917220e-01, 1.31357878e-01,
          5.68382703e-02, 4.38917220e-01, 5.41939199e-01, 6.83308393e-02,
          1.29542187e-01, 2.26763204e-01, 5.41939199e-01, 1.77011475e-01,
          2.11648531e-02, 9.40256193e-02, 5.41939199e-01, 1.93296790e-01,
          4.76619482e-01, 4.76619482e-01, 4.99752909e-02, 1.43903002e-01,
          4.76619482e-01, 4.76619482e-01, 1.40938058e-01, 7.83715844e-02,
          4.69056815e-01, 4.69056815e-01, 4.69056815e-01, 6.06484571e-03,
          1.92866981e-01, 1.60206035e-01, 2.20394045e-01, 6.15113117e-02,
          4.69056815e-01, 5.51302850e-01, 4.52065142e-03, 4.24842816e-03,
          8.46534222e-02, 5.51302850e-01, 2.41326064e-01, 1.24582835e-01,
          4.15467620e-02, 5.51302850e-01, 1.87954038e-01, 4.66313124e-01,
          4.66313124e-01, 5.60106635e-02, 6.03447296e-02, 9.92496535e-02,
          4.66313124e-01, 2.71283090e-01, 4.66313124e-01, 2.39109788e-02,
          4.65959072e-01, 4.97882664e-01, 3.55112739e-02, 9.76051986e-02,
          1.33142948e-01, 4.97882664e-01, 4.97882664e-01, 7.18443915e-02,
          2.54238546e-01, 4.71054912e-02, 3.48120835e-03, 8.83082300e-02,
          4.93746370e-01, 3.48293692e-01, 4.93746370e-01, 4.93746370e-01,
          2.60263294e-01, 1.87954038e-01, 4.66313124e-01, 4.66313124e-01,
          5.60106635e-02, 6.03447296e-02, 9.92496535e-02, 4.66313124e-01,
          2.71283090e-01, 4.66313124e-01, 2.39109788e-02, 4.65959072e-01,
          4.97882664e-01, 3.55112739e-02, 9.76051986e-02, 1.33142948e-01,
          4.97882664e-01, 4.97882664e-01, 7.18443915e-02, 2.54238546e-01,
          4.71054912e-02, 3.48120835e-03, 8.83082300e-02, 4.93746370e-01,
          3.48293692e-01, 4.93746370e-01, 4.93746370e-01, 2.60263294e-01,
          2.22878441e-01, 4.35664415e-01, 4.35664415e-01, 4.10592139e-01,
          4.06292714e-02, 5.19460104e-02, 1.17576540e-01, 4.35664415e-01,
          4.35664415e-01, 3.80459130e-01, 4.09471244e-01, 4.09471244e-01,
          1.12906560e-01, 1.52048795e-03, 8.76093097e-03, 4.09471244e-01,
          4.09471244e-01, 4.09471244e-01, 4.57905531e-01, 3.65301639e-01,
          7.25447992e-03, 5.30094141e-03, 1.96951628e-03, 2.01690778e-01,
          4.57905531e-01, 4.57905531e-01, 4.38388705e-01, 1.91058721e-02,
          6.46029711e-02, 4.91300076e-01, 4.91300076e-01, 1.44331515e-01,
          4.53185774e-02, 4.65418473e-02, 4.91300076e-01, 4.91300076e-01,
          8.25664327e-02, 4.34875749e-02, 4.56029922e-01, 5.34081459e-01,
          2.67605960e-01, 5.34081459e-01, 1.96512252e-01, 1.97432250e-01,
          2.41451979e-01, 1.01171300e-01, 3.78654115e-02, 6.47551939e-03,
          5.15360460e-02, 5.81986085e-02, 6.81753039e-01, 6.81753039e-01,
          2.02150270e-01, 7.07151145e-02, 5.41939199e-01, 6.83308393e-02,
          1.29542187e-01, 2.26763204e-01, 5.41939199e-01, 1.77011475e-01,
          2.11648531e-02, 9.40256193e-02, 5.41939199e-01, 4.93542284e-01,
          5.29647134e-02, 1.03134170e-01, 4.93542284e-01, 4.93542284e-01,
          4.68729027e-02, 5.30092604e-02, 4.78092059e-02, 4.93542284e-01,
          5.32600224e-01, 1.08831190e-03, 2.31215358e-01, 5.32600224e-01,
          2.83908337e-01, 1.41429259e-02, 7.54036158e-02, 6.11610115e-02,
          5.32600224e-01, 5.51302850e-01, 4.52065142e-03, 4.24842816e-03,
          8.46534222e-02, 5.51302850e-01, 2.41326064e-01, 1.24582835e-01,
          4.15467620e-02, 5.51302850e-01, 5.69411457e-01, 1.17426476e-04,
          9.97711089e-04, 1.05715044e-01, 5.69411457e-01, 1.02220394e-01,
          3.61684040e-04, 4.81851312e-04, 5.69411457e-01, 4.24160808e-01,
          0., 7.91920573e-02, 4.24160808e-01, 4.24160808e-01,
          2.10719690e-01, 3.39264452e-01, 3.32172751e-01, 4.24160808e-01,
          2.54238546e-01, 4.71054912e-02, 3.48120835e-03, 8.83082300e-02,
          4.93746370e-01, 3.48293692e-01, 4.93746370e-01, 4.93746370e-01,
          2.60263294e-01, 1.09162770e-01, 6.67398050e-02, 7.68579468e-02,
          3.66961986e-01, 8.91935349e-01, 1.17394358e-01, 7.71828517e-02,
          6.42016828e-02, 1.21459350e-01, 1.81574244e-02, 3.05344090e-02,
          1.01828948e-01, 5.68068743e-01, 7.14280248e-01, 3.24168473e-01,
          2.00401574e-01, 5.22150658e-02, 1.91845186e-02, 2.54238546e-01,
          4.71054912e-02, 3.48120835e-03, 8.83082300e-02, 4.93746370e-01,
          3.48293692e-01, 4.93746370e-01, 4.93746370e-01, 2.60263294e-01,
          1.09162770e-01, 6.67398050e-02, 7.68579468e-02, 3.66961986e-01,
          8.91935349e-01, 1.17394358e-01, 7.71828517e-02, 6.42016828e-02,
          1.21459350e-01, 1.81574244e-02, 3.05344090e-02, 1.01828948e-01,
          5.68068743e-01, 7.14280248e-01, 3.24168473e-01, 2.00401574e-01,
          5.22150658e-02, 1.91845186e-02, 4.57905531e-01, 3.65301639e-01,
          7.25447992e-03, 5.30094141e-03, 1.96951628e-03, 2.01690778e-01,
          4.57905531e-01, 4.57905531e-01, 4.38388705e-01, 3.16764861e-01,
          1.09340683e-01, 5.69365658e-02, 1.96016505e-02, 2.23323498e-02,
          2.17970982e-01, 6.04136705e-01, 6.04136705e-01, 3.16344917e-01,
          4.22066376e-02, 6.67626500e-01, 6.67626500e-01, 3.07121247e-01,
          7.24417716e-02, 4.88311518e-03, 2.04257872e-02, 6.57657487e-03,
          6.90674409e-03, 1.01171300e-01, 3.78654115e-02, 6.47551939e-03,
          5.15360460e-02, 5.81986085e-02, 6.81753039e-01, 6.81753039e-01,
          2.02150270e-01, 7.07151145e-02, 4.58780527e-01, 1.72427118e-01,
          6.04034588e-02, 4.99579944e-02, 7.20670149e-02, 4.90695000e-01,
          4.90695000e-01, 3.73427898e-01, 3.50055307e-01, 6.13782167e-01,
          6.13782167e-01, 3.80988121e-01, 1.62827447e-01, 2.36369625e-01,
          3.34583670e-02, 2.44354643e-02, 6.45270897e-03, 1.05455674e-01 ]
      - [ 5.57257175e-01, 5.57257175e-01, 6.00876696e-02, 3.30903195e-02,
          1.83764920e-01, 5.57257175e-01, 1.40194744e-01, 3.49136479e-02,
          5.89911975e-02, 4.49813694e-01, 4.21735555e-01, 1.73578307e-01,
          1.08483277e-01, 5.27112722e-01, 5.27112722e-01, 1.23315133e-01,
          7.01757148e-03, 4.11470160e-02, 3.56624544e-01, 3.56624544e-01,
          3.56624544e-01, 3.56624544e-01, 3.56624544e-01, 3.56624544e-01,
          2.16945738e-01, 3.56624544e-01, 2.43113324e-01, 2.69612104e-01,
          2.91342437e-01, 2.43010938e-01, 5.19828685e-03, 1.38688073e-01,
          5.38239717e-01, 5.38239717e-01, 4.02702600e-01, 1.31014392e-01,
          3.98050189e-01, 3.98050189e-01, 3.98050189e-01, 2.72091538e-01,
          3.98050189e-01, 3.98050189e-01, 4.89420369e-02, 2.90572923e-02,
          3.55711043e-01, 3.52114916e-01, 3.52114916e-01, 3.52114916e-01,
          3.52114916e-01, 3.19863379e-01, 3.52114916e-01, 1.62095398e-01,
          3.52114916e-01, 3.52114916e-01, 1.62851233e-02, 1.42804578e-01,
          3.38943839e-01, 2.03722995e-02, 6.86658248e-02, 1.77783445e-01,
          6.35178626e-01, 6.35178626e-01, 1.20317273e-01, 2.27012619e-01,
          5.04875064e-01, 5.04875064e-01, 2.55827665e-01, 5.04875064e-01,
          2.73298055e-01, 1.09008737e-01, 5.99658452e-02, 1.52013212e-01,
          3.72186333e-01, 3.72186333e-01, 3.72186333e-01, 3.72186333e-01,
          3.72186333e-01, 3.72186333e-01, 1.67613789e-01, 1.65389106e-01,
          3.31206530e-01, 1.62851233e-02, 1.42804578e-01, 3.38943839e-01,
          2.03722995e-02, 6.86658248e-02, 1.77783445e-01, 6.35178626e-01,
          6.35178626e-01, 1.20317273e-01, 2.27012619e-01, 5.04875064e-01,
          5.04875064e-01, 2.55827665e-01, 5.04875064e-01, 2.73298055e-01,
          1.09008737e-01, 5.99658452e-02, 1.52013212e-01, 3.72186333e-01,
          3.72186333e-01, 3.72186333e-01, 3.72186333e-01, 3.72186333e-01,
          3.72186333e-01, 1.67613789e-01, 1.65389106e-01, 3.31206530e-01,
          1.14809508e-02, 3.82045172e-02, 2.28648081e-01, 5.37505329e-01,
          1.26664257e-02, 7.88137317e-03, 2.71665841e-01, 5.37505329e-01,
          5.37505329e-01, 4.80721667e-02, 2.81275719e-01, 5.42616546e-01,
          1.51132777e-01, 1.78084522e-02, 1.91193502e-02, 7.95757696e-02,
          5.42616546e-01, 5.42616546e-01, 3.91548216e-01, 3.91548216e-01,
          3.91548216e-01, 3.91548216e-01, 1.51177302e-01, 1.95789486e-01,
          1.22638188e-01, 3.91548216e-01, 3.91548216e-01, 1.03162207e-01,
          5.69111258e-02, 2.35183343e-01, 5.48064411e-01, 1.27348259e-01,
          5.24797924e-02, 7.23809153e-02, 5.48064411e-01, 5.48064411e-01,
          4.93426993e-02, 6.90111443e-02, 2.10661680e-01, 5.58789909e-01,
          7.50183240e-02, 6.42411131e-03, 2.09053457e-02, 5.58789909e-01,
          5.58789909e-01, 3.78049612e-01, 3.78049612e-01, 3.78049612e-01,
          3.78049612e-01, 2.79296935e-01, 1.95917219e-01, 2.41477117e-01,
          3.26977015e-01, 3.78049612e-01, 3.56624544e-01, 3.56624544e-01,
          3.56624544e-01, 3.56624544e-01, 3.56624544e-01, 3.56624544e-01,
          2.16945738e-01, 3.56624544e-01, 2.43113324e-01, 2.07077250e-01,
          2.49013007e-01, 3.96264493e-01, 3.96264493e-01, 3.96264493e-01,
          2.05229655e-01, 2.52796113e-01, 3.96264493e-01, 3.96264493e-01,
          1.43525839e-01, 5.59679046e-02, 1.77101508e-01, 4.39571768e-01,
          4.39571768e-01, 2.14410067e-01, 3.48779261e-01, 4.39571768e-01,
          4.39571768e-01, 3.52114916e-01, 3.52114916e-01, 3.52114916e-01,
          3.52114916e-01, 3.19863379e-01, 3.52114916e-01, 1.62095398e-01,
          3.52114916e-01, 3.52114916e-01, 3.30403447e-01, 1.32778317e-01,
          3.01282316e-01, 3.70187998e-01, 3.70187998e-01, 3.70187998e-01,
          3.05840462e-01, 3.70187998e-01, 3.70187998e-01, 2.12630332e-01,
          1.60293326e-01, 2.20304176e-01, 4.02576685e-01, 2.89534032e-01,
          4.02576685e-01, 4.02576685e-01, 4.02576685e-01, 3.80048364e-01,
          3.72186333e-01, 3.72186333e-01, 3.72186333e-01, 3.72186333e-01,
          3.72186333e-01, 3.72186333e-01, 1.67613789e-01, 1.65389106e-01,
          3.31206530e-01, 3.89350444e-01, 1.94085732e-01, 1.20345764e-01,
          3.89350444e-01, 3.89350444e-01, 3.89350444e-01, 1.85459569e-01,
          3.89350444e-01, 3.89350444e-01, 1.41966939e-01, 3.44753623e-01,
          1.58291847e-01, 2.31928214e-01, 3.94512922e-01, 3.94512922e-01,
          3.94512922e-01, 3.94512922e-01, 3.94512922e-01, 3.72186333e-01,
          3.72186333e-01, 3.72186333e-01, 3.72186333e-01, 3.72186333e-01,
          3.72186333e-01, 1.67613789e-01, 1.65389106e-01, 3.31206530e-01,
          3.89350444e-01, 1.94085732e-01, 1.20345764e-01, 3.89350444e-01,
          3.89350444e-01, 3.89350444e-01, 1.85459569e-01, 3.89350444e-01,
          3.89350444e-01, 1.41966939e-01, 3.44753623e-01, 1.58291847e-01,
          2.31928214e-01, 3.94512922e-01, 3.94512922e-01, 3.94512922e-01,
          3.94512922e-01, 3.94512922e-01, 3.91548216e-01, 3.91548216e-01,
          3.91548216e-01, 3.91548216e-01, 1.51177302e-01, 1.95789486e-01,
          1.22638188e-01, 3.91548216e-01, 3.91548216e-01, 3.40309560e-01,
          3.40309560e-01, 2.64792681e-01, 3.40309560e-01, 3.40309560e-01,
          3.40309560e-01, 3.40309560e-01, 3.40309560e-01, 3.40309560e-01,
          1.48952872e-01, 2.18211412e-01, 1.56248465e-01, 1.58721387e-01,
          9.69926715e-02, 4.89989281e-01, 4.89989281e-01, 4.89989281e-01,
          3.82126689e-01, 3.78049612e-01, 3.78049612e-01, 3.78049612e-01,
          3.78049612e-01, 2.79296935e-01, 1.95917219e-01, 2.41477117e-01,
          3.26977015e-01, 3.78049612e-01, 4.05074894e-01, 1.93377703e-01,
          2.13151082e-01, 2.56699026e-01, 4.05074894e-01, 4.05074894e-01,
          4.05074894e-01, 1.63714096e-01, 4.05074894e-01, 4.09022331e-01,
          4.09022331e-01, 2.69302353e-02, 5.17717861e-02, 3.39964718e-01,
          4.09022331e-01, 4.09022331e-01, 2.01086789e-01, 4.09022331e-01 ]
      - [ 6.18031994e-02, 4.28414971e-01, 4.28414971e-01, 2.51562655e-01,
          2.49072298e-01, 4.28414971e-01, 4.28414971e-01, 3.62930179e-01,
          2.65350211e-02, 4.56389338e-01, 4.56389338e-01, 4.56389338e-01,
          3.02000027e-02, 8.82065296e-03, 6.22272156e-02, 1.95077807e-01,
          3.45483929e-01, 4.56389338e-01, 3.93132001e-01, 2.26019517e-01,
          2.63753176e-01, 3.93132001e-01, 2.69807518e-01, 1.72806874e-01,
          3.93132001e-01, 3.93132001e-01, 3.93132001e-01, 4.25301224e-01,
          5.10001123e-01, 5.10001123e-01, 1.00703776e-01, 8.59393477e-02,
          2.95239747e-01, 2.63826847e-01, 3.20249319e-01, 1.30252466e-01,
          8.20074081e-02, 4.99206513e-01, 4.99206513e-01, 2.43365765e-01,
          5.35303093e-02, 5.28520606e-02, 4.99206513e-01, 4.14576620e-01,
          6.25134557e-02, 3.93760920e-01, 2.44865105e-01, 3.93760920e-01,
          3.61223519e-01, 1.37009218e-01, 1.07773341e-01, 3.93760920e-01,
          3.93760920e-01, 3.93760920e-01, 3.83651704e-01, 4.83120114e-01,
          4.83120114e-01, 4.83120114e-01, 7.14658946e-02, 1.59191191e-01,
          1.49228618e-01, 2.71513045e-01, 1.46059096e-01, 3.33061010e-01,
          4.38464135e-01, 4.38464135e-01, 4.38464135e-01, 1.31149352e-01,
          2.28036076e-01, 1.44693762e-01, 2.06167296e-01, 4.18684095e-01,
          3.74004483e-01, 3.13307554e-01, 3.74004483e-01, 3.66620779e-01,
          1.68343902e-01, 2.61865705e-01, 3.27506453e-01, 3.74004483e-01,
          3.74004483e-01, 3.83651704e-01, 4.83120114e-01, 4.83120114e-01,
          4.83120114e-01, 7.14658946e-02, 1.59191191e-01, 1.49228618e-01,
          2.71513045e-01, 1.46059096e-01, 3.33061010e-01, 4.38464135e-01,
          4.38464135e-01, 4.38464135e-01, 1.31149352e-01, 2.28036076e-01,
          1.44693762e-01, 2.06167296e-01, 4.18684095e-01, 3.74004483e-01,
          3.13307554e-01, 3.74004483e-01, 3.66620779e-01, 1.68343902e-01,
          2.61865705e-01, 3.27506453e-01, 3.74004483e-01, 3.74004483e-01,
          4.79308426e-01, 2.16616228e-01, 4.79308426e-01, 4.79308426e-01,
          1.40164480e-01, 9.67258289e-02, 1.84092578e-02, 1.68804114e-03,
          4.79308426e-01, 3.14473540e-01, 1.36600271e-01, 4.12083715e-01,
          4.12083715e-01, 4.12083715e-01, 4.12083715e-01, 1.09427519e-01,
          1.31494612e-01, 4.12083715e-01, 1.95399839e-02, 1.93473585e-02,
          3.41858387e-01, 5.28227866e-01, 5.28227866e-01, 5.28227866e-01,
          1.15009062e-01, 8.60352516e-02, 1.39278010e-01, 6.75559282e-01,
          1.57030866e-01, 4.78175171e-02, 4.23097797e-02, 2.24592790e-01,
          1.24372225e-02, 1.04040152e-03, 3.40892076e-02, 6.75559282e-01,
          5.63132703e-01, 4.42038812e-02, 4.73050438e-02, 9.48695093e-02,
          5.71018308e-02, 6.55099377e-02, 4.30197455e-02, 5.72090089e-01,
          5.72090089e-01, 5.32230854e-01, 1.39096857e-03, 5.90741299e-02,
          2.08035275e-01, 2.36271948e-01, 1.95954487e-01, 6.23122677e-02,
          5.32230854e-01, 5.32230854e-01, 3.93132001e-01, 2.26019517e-01,
          2.63753176e-01, 3.93132001e-01, 2.69807518e-01, 1.72806874e-01,
          3.93132001e-01, 3.93132001e-01, 3.93132001e-01, 2.82994241e-01,
          4.63066906e-01, 4.63066906e-01, 1.23662986e-01, 1.60688031e-02,
          4.31051664e-03, 4.63066906e-01, 4.63066906e-01, 2.04928741e-01,
          1.74074158e-01, 4.50619519e-01, 4.50619519e-01, 1.68615463e-03,
          0., 0., 4.50619519e-01, 4.50619519e-01, 3.91104162e-01,
          3.93760920e-01, 2.44865105e-01, 3.93760920e-01, 3.61223519e-01,
          1.37009218e-01, 1.07773341e-01, 3.93760920e-01, 3.93760920e-01,
          3.93760920e-01, 3.34124744e-01, 4.56708819e-01, 4.56708819e-01,
          1.92263514e-01, 1.17096407e-02, 2.58739479e-02, 4.56708819e-01,
          4.56708819e-01, 1.08144365e-01, 4.81228493e-02, 4.97511148e-01,
          4.97511148e-01, 8.09969846e-03, 0., 0., 4.97511148e-01,
          4.97511148e-01, 5.07973023e-02, 3.74004483e-01, 3.13307554e-01,
          3.74004483e-01, 3.66620779e-01, 1.68343902e-01, 2.61865705e-01,
          3.27506453e-01, 3.74004483e-01, 3.74004483e-01, 4.27168459e-01,
          4.27168459e-01, 4.17588830e-01, 1.60244163e-02, 3.33478004e-02,
          2.02265427e-01, 4.27168459e-01, 4.27168459e-01, 2.21766993e-01,
          9.80502740e-02, 4.96001959e-01, 4.96001959e-01, 0.,
          1.10166101e-03, 1.60964783e-02, 4.96001959e-01, 4.96001959e-01,
          3.31689194e-02, 3.74004483e-01, 3.13307554e-01, 3.74004483e-01,
          3.66620779e-01, 1.68343902e-01, 2.61865705e-01, 3.27506453e-01,
          3.74004483e-01, 3.74004483e-01, 4.27168459e-01, 4.27168459e-01,
          4.17588830e-01, 1.60244163e-02, 3.33478004e-02, 2.02265427e-01,
          4.27168459e-01, 4.27168459e-01, 2.21766993e-01, 9.80502740e-02,
          4.96001959e-01, 4.96001959e-01, 0., 1.10166101e-03,
          1.60964783e-02, 4.96001959e-01, 4.96001959e-01, 3.31689194e-02,
          1.95399839e-02, 1.93473585e-02, 3.41858387e-01, 5.28227866e-01,
          5.28227866e-01, 5.28227866e-01, 1.15009062e-01, 8.60352516e-02,
          1.39278010e-01, 2.70886868e-02, 4.39123780e-01, 4.39123780e-01,
          4.39123780e-01, 4.39123780e-01, 4.39123780e-01, 1.68402642e-01,
          4.39691655e-02, 2.09440514e-02, 2.37971661e-03, 2.97122866e-01,
          2.77119219e-01, 2.21075967e-01, 5.01483619e-01, 5.01483619e-01,
          5.01483619e-01, 1.63013831e-01, 1.82620296e-03, 5.32230854e-01,
          1.39096857e-03, 5.90741299e-02, 2.08035275e-01, 2.36271948e-01,
          1.95954487e-01, 6.23122677e-02, 5.32230854e-01, 5.32230854e-01,
          4.44589674e-01, 5.91169409e-02, 4.23512965e-01, 4.44589674e-01,
          4.39963400e-01, 1.47720337e-01, 2.28845906e-02, 6.17104396e-02,
          4.44589674e-01, 4.35085773e-01, 4.55037178e-03, 2.14072820e-02,
          1.58519164e-01, 4.35085773e-01, 4.35085773e-01, 4.06471282e-01,
          2.18240917e-01, 4.35085773e-01 ]
      - [ 5.43205142e-01, 5.43205142e-01, 5.43205142e-01, 6.38945028e-02,
          7.24133402e-02, 5.27788736e-02, 2.71116525e-01, 8.13869089e-02,
          1.30844176e-01, 6.94840848e-01, 6.94840848e-01, 6.91156760e-02,
          1.49028637e-02, 2.79128440e-02, 8.69929269e-02, 4.07277141e-03,
          1.82172768e-02, 1.17310084e-01, 5.42189240e-01, 1.99585095e-01,
          3.42170224e-02, 9.52690374e-03, 2.64175028e-01, 5.42189240e-01,
          3.72015536e-02, 2.02455912e-02, 5.42189240e-01, 1.51947498e-01,
          6.94135666e-01, 6.94135666e-01, 1.10073769e-02, 1.04883555e-02,
          2.15105489e-02, 7.12623224e-02, 2.29681879e-02, 5.84686222e-03,
          4.63229328e-01, 4.63229328e-01, 1.75518945e-01, 1.09310830e-02,
          7.80313089e-02, 4.63229328e-01, 4.63229328e-01, 2.55030215e-01,
          1.87060460e-01, 3.70994061e-01, 3.29642028e-01, 3.70994061e-01,
          8.51449892e-02, 3.70994061e-01, 3.70994061e-01, 3.70994061e-01,
          2.33581647e-01, 3.70994061e-01, 3.79916886e-03, 6.95167959e-01,
          6.95167959e-01, 1.56081215e-01, 1.64832976e-02, 3.55272181e-02,
          1.85586978e-02, 1.47885177e-02, 8.40689428e-03, 2.20589653e-01,
          3.98536384e-01, 3.98536384e-01, 1.02115810e-01, 2.43975639e-01,
          3.98536384e-01, 3.98536384e-01, 2.88532227e-01, 3.98536384e-01,
          4.49730247e-01, 1.60612985e-01, 6.36344180e-02, 2.19509363e-01,
          4.49730247e-01, 4.49730247e-01, 1.77172244e-01, 2.77593732e-01,
          4.49730247e-01, 3.79916886e-03, 6.95167959e-01, 6.95167959e-01,
          1.56081215e-01, 1.64832976e-02, 3.55272181e-02, 1.85586978e-02,
          1.47885177e-02, 8.40689428e-03, 2.20589653e-01, 3.98536384e-01,
          3.98536384e-01, 1.02115810e-01, 2.43975639e-01, 3.98536384e-01,
          3.98536384e-01, 2.88532227e-01, 3.98536384e-01, 4.49730247e-01,
          1.60612985e-01, 6.36344180e-02, 2.19509363e-01, 4.49730247e-01,
          4.49730247e-01, 1.77172244e-01, 2.77593732e-01, 4.49730247e-01,
          9.68204904e-03, 4.33016509e-01, 6.34686828e-01, 6.34686828e-01,
          7.14448607e-03, 9.71630402e-03, 1.21194804e-02, 1.05813015e-02,
          2.68472079e-03, 9.91718322e-02, 3.98795813e-01, 4.22368377e-01,
          4.22368377e-01, 9.77860540e-02, 4.22368377e-01, 4.22368377e-01,
          3.16155761e-01, 6.17323853e-02, 3.59996289e-01, 3.59996289e-01,
          2.43901864e-01, 3.59996289e-01, 3.59996289e-01, 3.59996289e-01,
          3.58567387e-01, 1.75387383e-01, 3.59996289e-01, 8.42313021e-02,
          4.92031395e-01, 4.92031395e-01, 4.92031395e-01, 4.92031395e-01,
          1.35806307e-01, 1.77534819e-02, 2.20061205e-02, 1.91961136e-02,
          7.53936963e-03, 3.41636948e-02, 1.93617180e-01, 6.33816242e-01,
          6.33816242e-01, 1.11158267e-01, 2.45979175e-01, 2.70567566e-01,
          7.37938285e-02, 8.09921399e-02, 1.35359794e-01, 1.31062731e-01,
          5.66361308e-01, 5.66361308e-01, 4.65295494e-01, 1.55013174e-01,
          2.51077622e-01, 8.47691372e-02, 5.42189240e-01, 1.99585095e-01,
          3.42170224e-02, 9.52690374e-03, 2.64175028e-01, 5.42189240e-01,
          3.72015536e-02, 2.02455912e-02, 5.42189240e-01, 4.14521903e-01,
          2.62653559e-01, 3.18552494e-01, 7.26418346e-02, 3.13373476e-01,
          4.14521903e-01, 2.83525169e-01, 3.55028093e-01, 4.14521903e-01,
          1.95318222e-01, 2.01616630e-01, 1.67151645e-01, 2.16701925e-02,
          2.84768716e-02, 2.70288046e-02, 8.54136124e-02, 6.62322819e-01,
          6.62322819e-01, 3.70994061e-01, 3.29642028e-01, 3.70994061e-01,
          8.51449892e-02, 3.70994061e-01, 3.70994061e-01, 3.70994061e-01,
          2.33581647e-01, 3.70994061e-01, 3.82802933e-01, 3.82802933e-01,
          3.82802933e-01, 2.39239022e-01, 2.07573429e-01, 3.82802933e-01,
          3.82802933e-01, 3.22058171e-01, 2.43807063e-01, 7.31823370e-02,
          3.76970768e-01, 5.08522987e-01, 1.64521620e-01, 1.20626288e-02,
          1.32856853e-02, 2.52291560e-01, 5.08522987e-01, 4.89108205e-01,
          4.49730247e-01, 1.60612985e-01, 6.36344180e-02, 2.19509363e-01,
          4.49730247e-01, 4.49730247e-01, 1.77172244e-01, 2.77593732e-01,
          4.49730247e-01, 3.66962522e-01, 3.66962522e-01, 3.66962522e-01,
          3.66962522e-01, 3.66962522e-01, 1.40456602e-01, 1.84324056e-01,
          3.66962522e-01, 3.66962522e-01, 3.94659191e-01, 4.41267341e-01,
          4.41267341e-01, 1.87456220e-01, 3.39231826e-02, 1.45893782e-01,
          4.41267341e-01, 4.41267341e-01, 5.82504906e-02, 4.49730247e-01,
          1.60612985e-01, 6.36344180e-02, 2.19509363e-01, 4.49730247e-01,
          4.49730247e-01, 1.77172244e-01, 2.77593732e-01, 4.49730247e-01,
          3.66962522e-01, 3.66962522e-01, 3.66962522e-01, 3.66962522e-01,
          3.66962522e-01, 1.40456602e-01, 1.84324056e-01, 3.66962522e-01,
          3.66962522e-01, 3.94659191e-01, 4.41267341e-01, 4.41267341e-01,
          1.87456220e-01, 3.39231826e-02, 1.45893782e-01, 4.41267341e-01,
          4.41267341e-01, 5.82504906e-02, 3.59996289e-01, 3.59996289e-01,
          2.43901864e-01, 3.59996289e-01, 3.59996289e-01, 3.59996289e-01,
          3.58567387e-01, 1.75387383e-01, 3.59996289e-01, 2.36106068e-01,
          3.43786538e-01, 3.43786538e-01, 3.43786538e-01, 3.36889863e-01,
          3.43786538e-01, 3.43786538e-01, 3.43786538e-01, 3.43786538e-01,
          2.72548571e-02, 2.55734086e-01, 5.44466496e-01, 1.74689054e-01,
          8.17160681e-02, 5.44466496e-01, 5.44466496e-01, 4.24316674e-02,
          9.72486194e-03, 8.09921399e-02, 1.35359794e-01, 1.31062731e-01,
          5.66361308e-01, 5.66361308e-01, 4.65295494e-01, 1.55013174e-01,
          2.51077622e-01, 8.47691372e-02, 3.83487642e-01, 4.93378967e-01,
          2.15436980e-01, 1.34088889e-01, 4.93378967e-01, 4.93378967e-01,
          2.26025030e-01, 4.50867042e-02, 1.51036419e-02, 2.69558765e-02,
          1.63554713e-01, 9.81175825e-02, 3.90985720e-02, 6.75840139e-01,
          6.75840139e-01, 2.02720225e-01, 2.17342586e-03, 7.71076127e-04 ]
      - [ 3.68635565e-01, 3.68635565e-01, 3.68635565e-01, 3.68635565e-01,
          1.87372610e-01, 1.71759784e-01, 3.41107100e-01, 3.68635565e-01,
          3.68635565e-01, 3.41529876e-01, 3.32254589e-01, 3.41529876e-01,
          3.41529876e-01, 2.72625029e-01, 3.41529876e-01, 3.34685206e-01,
          3.41529876e-01, 3.41529876e-01, 4.15750742e-01, 4.15750742e-01,
          1.61290243e-01, 1.60482631e-03, 3.08148209e-02, 3.23475987e-01,
          4.15750742e-01, 4.15750742e-01, 4.15750742e-01, 1.98520143e-02,
          3.16982239e-01, 4.49889243e-01, 4.49889243e-01, 3.37197721e-01,
          4.06836927e-01, 4.49889243e-01, 9.04039219e-02, 6.47637155e-03,
          3.53075504e-01, 4.16236252e-01, 4.16236252e-01, 4.16236252e-01,
          2.10667893e-01, 1.75699249e-01, 2.81691104e-01, 2.83929884e-01,
          3.40887696e-01, 4.00924027e-01, 1.40038997e-01, 1.02926649e-01,
          3.67362015e-02, 4.00924027e-01, 4.00924027e-01, 4.00924027e-01,
          4.00924027e-01, 4.00924027e-01, 3.94312339e-03, 2.84107327e-01,
          5.65075219e-01, 1.58033803e-01, 2.44916715e-02, 4.40105461e-02,
          5.65075219e-01, 4.97484088e-01, 1.66959071e-03, 3.87379527e-02,
          3.52963060e-01, 4.47245181e-01, 3.88549238e-01, 4.47245181e-01,
          3.12228173e-01, 4.41367239e-01, 1.42963439e-01, 7.54452124e-02,
          1.34544224e-02, 4.11547497e-02, 1.55114189e-01, 2.78108239e-01,
          5.37309289e-01, 5.37309289e-01, 5.37309289e-01, 1.55567676e-01,
          3.24000269e-02, 3.94312339e-03, 2.84107327e-01, 5.65075219e-01,
          1.58033803e-01, 2.44916715e-02, 4.40105461e-02, 5.65075219e-01,
          4.97484088e-01, 1.66959071e-03, 3.87379527e-02, 3.52963060e-01,
          4.47245181e-01, 3.88549238e-01, 4.47245181e-01, 3.12228173e-01,
          4.41367239e-01, 1.42963439e-01, 7.54452124e-02, 1.34544224e-02,
          4.11547497e-02, 1.55114189e-01, 2.78108239e-01, 5.37309289e-01,
          5.37309289e-01, 5.37309289e-01, 1.55567676e-01, 3.24000269e-02,
          2.91823596e-02, 3.76110107e-01, 5.30633926e-01, 8.01281482e-02,
          3.07015162e-02, 1.18528735e-02, 5.30633926e-01, 5.30633926e-01,
          1.30222896e-02, 3.90787333e-01, 3.90787333e-01, 3.90787333e-01,
          3.90787333e-01, 3.90787333e-01, 2.68729180e-01, 9.45904776e-02,
          8.55497271e-02, 3.79526794e-01, 3.91926527e-01, 3.91926527e-01,
          3.91926527e-01, 3.30866158e-01, 3.91926527e-01, 2.77241558e-01,
          1.16679974e-01, 1.67640030e-01, 3.91926527e-01, 3.68350409e-02,
          4.82545048e-01, 4.82545048e-01, 3.43851835e-01, 2.30931118e-02,
          3.88292879e-01, 4.82545048e-01, 1.60118744e-01, 9.88887064e-03,
          3.84580612e-01, 3.84580612e-01, 3.84580612e-01, 3.84580612e-01,
          3.77216130e-01, 3.22459549e-01, 8.89421180e-02, 4.96382415e-02,
          3.84580612e-01, 3.85701090e-01, 1.51379123e-01, 2.79727846e-01,
          3.85701090e-01, 3.85701090e-01, 3.85701090e-01, 4.89026494e-02,
          3.85701090e-01, 3.85701090e-01, 4.15750742e-01, 4.15750742e-01,
          1.61290243e-01, 1.60482631e-03, 3.08148209e-02, 3.23475987e-01,
          4.15750742e-01, 4.15750742e-01, 4.15750742e-01, 2.64017284e-01,
          2.16869578e-01, 7.00147972e-02, 9.45421867e-03, 8.24160594e-03,
          1.07982337e-01, 5.35783589e-01, 5.35783589e-01, 5.35783589e-01,
          4.81857032e-01, 4.81857032e-01, 4.81857032e-01, 1.01602972e-01,
          3.60537171e-02, 8.07535127e-02, 1.74868703e-01, 1.33113623e-01,
          4.81857032e-01, 4.00924027e-01, 1.40038997e-01, 1.02926649e-01,
          3.67362015e-02, 4.00924027e-01, 4.00924027e-01, 4.00924027e-01,
          4.00924027e-01, 4.00924027e-01, 3.92897315e-02, 3.10029183e-02,
          1.04517519e-01, 4.63657714e-02, 1.24856196e-01, 3.68608087e-01,
          6.41747892e-01, 6.41747892e-01, 5.35980314e-02, 1.69322249e-02,
          9.18131620e-02, 4.81908292e-01, 4.66374993e-01, 3.58903497e-01,
          4.81908292e-01, 4.11021590e-01, 7.96582326e-02, 1.99423935e-02,
          1.34544224e-02, 4.11547497e-02, 1.55114189e-01, 2.78108239e-01,
          5.37309289e-01, 5.37309289e-01, 5.37309289e-01, 1.55567676e-01,
          3.24000269e-02, 2.23840494e-02, 3.30859609e-02, 6.68611899e-02,
          1.73390225e-01, 3.69026244e-01, 5.34809411e-01, 5.34809411e-01,
          4.99299318e-01, 3.17212716e-02, 2.48709366e-01, 1.72816098e-01,
          3.78753930e-01, 2.87184417e-01, 4.46937710e-01, 4.46937710e-01,
          4.46937710e-01, 2.00549006e-01, 1.95971385e-01, 1.34544224e-02,
          4.11547497e-02, 1.55114189e-01, 2.78108239e-01, 5.37309289e-01,
          5.37309289e-01, 5.37309289e-01, 1.55567676e-01, 3.24000269e-02,
          2.23840494e-02, 3.30859609e-02, 6.68611899e-02, 1.73390225e-01,
          3.69026244e-01, 5.34809411e-01, 5.34809411e-01, 4.99299318e-01,
          3.17212716e-02, 2.48709366e-01, 1.72816098e-01, 3.78753930e-01,
          2.87184417e-01, 4.46937710e-01, 4.46937710e-01, 4.46937710e-01,
          2.00549006e-01, 1.95971385e-01, 3.91926527e-01, 3.91926527e-01,
          3.91926527e-01, 3.30866158e-01, 3.91926527e-01, 2.77241558e-01,
          1.16679974e-01, 1.67640030e-01, 3.91926527e-01, 4.35351998e-01,
          4.35351998e-01, 1.24499843e-01, 5.67011125e-02, 1.42437816e-01,
          2.86163330e-01, 4.35351998e-01, 3.41515124e-01, 4.35351998e-01,
          5.25926054e-01, 5.25926054e-01, 2.83733718e-02, 2.69269738e-02,
          3.03459633e-02, 4.24871258e-02, 1.03446476e-01, 3.87293011e-01,
          5.25926054e-01, 3.85701090e-01, 1.51379123e-01, 2.79727846e-01,
          3.85701090e-01, 3.85701090e-01, 3.85701090e-01, 4.89026494e-02,
          3.85701090e-01, 3.85701090e-01, 5.34150302e-01, 4.84932601e-01,
          1.59063503e-01, 1.64960250e-01, 5.34150302e-01, 1.50509700e-01,
          1.58022798e-03, 1.21177696e-01, 3.14674497e-01, 4.35417980e-01,
          4.35417980e-01, 2.79682481e-05, 1.23624858e-02, 4.35417980e-01,
          4.35417980e-01, 4.35417980e-01, 1.75023615e-01, 1.30078033e-01 ]
      - [ 2.53746778e-01, 5.01109064e-01, 5.01109064e-01, 5.01109064e-01,
          2.40075052e-01, 2.82802671e-01, 1.37986794e-01, 1.27213746e-01,
          6.66308999e-02, 3.03675264e-01, 2.21653000e-01, 1.52999103e-01,
          1.09037526e-01, 3.58699262e-01, 2.13081613e-01, 2.71739215e-01,
          5.33905566e-01, 5.33905566e-01, 4.80287641e-01, 3.14123392e-01,
          7.52360299e-02, 1.51388749e-01, 4.00928229e-01, 1.10568441e-01,
          5.43406941e-02, 4.80287641e-01, 4.80287641e-01, 4.63931561e-02,
          1.18561246e-01, 5.41301489e-01, 5.41301489e-01, 1.04306899e-02,
          3.77057418e-02, 3.04137796e-01, 5.41301489e-01, 7.30269700e-02,
          2.26790860e-01, 2.95486301e-01, 5.00251472e-01, 4.65691090e-01,
          2.20137417e-01, 1.17622808e-01, 1.49585485e-01, 4.44666266e-01,
          3.26708257e-01, 5.31815767e-01, 3.56702387e-01, 7.70662352e-02,
          1.61115732e-02, 1.56842634e-01, 1.03226207e-01, 2.20134869e-01,
          4.09621209e-01, 5.71424901e-01, 5.56684146e-03, 1.23433620e-01,
          4.83818918e-01, 4.83818918e-01, 3.64437625e-02, 2.96613146e-02,
          4.83818918e-01, 4.83818918e-01, 2.03395575e-01, 2.15271622e-01,
          2.18210071e-01, 4.49089766e-01, 4.49089766e-01, 4.49089766e-01,
          3.16416860e-01, 3.92235309e-01, 1.56808734e-01, 1.33995071e-01,
          3.72812003e-01, 4.18311447e-01, 2.97222823e-01, 3.98785025e-01,
          4.18311447e-01, 2.57423490e-01, 2.87108392e-01, 1.92838147e-01,
          2.71307677e-01, 5.56684146e-03, 1.23433620e-01, 4.83818918e-01,
          4.83818918e-01, 3.64437625e-02, 2.96613146e-02, 4.83818918e-01,
          4.83818918e-01, 2.03395575e-01, 2.15271622e-01, 2.18210071e-01,
          4.49089766e-01, 4.49089766e-01, 4.49089766e-01, 3.16416860e-01,
          3.92235309e-01, 1.56808734e-01, 1.33995071e-01, 3.72812003e-01,
          4.18311447e-01, 2.97222823e-01, 3.98785025e-01, 4.18311447e-01,
          2.57423490e-01, 2.87108392e-01, 1.92838147e-01, 2.71307677e-01,
          5.55280177e-03, 2.67247111e-02, 5.18308282e-01, 3.58452827e-01,
          2.71543190e-02, 4.01169434e-02, 5.18308282e-01, 5.18308282e-01,
          2.39401221e-01, 1.36737108e-01, 1.58729911e-01, 5.98353565e-01,
          5.98353565e-01, 4.47272658e-02, 7.94431493e-02, 2.00660318e-01,
          3.98216873e-01, 1.64092109e-01, 3.92441183e-01, 4.64272946e-01,
          4.69055384e-01, 3.37476164e-01, 1.29717335e-01, 3.34954262e-01,
          3.26392502e-01, 1.40712857e-01, 1.91047892e-01, 1.18193276e-01,
          2.42452305e-02, 1.79058909e-01, 1.44124269e-01, 3.32795121e-02,
          2.30587021e-01, 5.40829182e-01, 5.40829182e-01, 5.36597967e-01,
          3.88884038e-01, 1.03685290e-01, 3.98054570e-01, 3.98054570e-01,
          2.46919066e-01, 3.07339672e-02, 3.71939063e-01, 3.98054570e-01,
          3.98054570e-01, 1.91726819e-01, 5.47281057e-02, 1.34667918e-01,
          5.56693673e-01, 5.56693673e-01, 5.84437959e-02, 4.79689576e-02,
          3.33282351e-02, 5.56693673e-01, 4.80287641e-01, 3.14123392e-01,
          7.52360299e-02, 1.51388749e-01, 4.00928229e-01, 1.10568441e-01,
          5.43406941e-02, 4.80287641e-01, 4.80287641e-01, 4.98611778e-01,
          5.04401803e-01, 5.04401803e-01, 1.82940498e-01, 1.33943841e-01,
          1.95690747e-02, 1.34527624e-01, 1.52962387e-01, 3.79763216e-01,
          5.60632408e-01, 3.54050219e-01, 1.69355407e-01, 1.01793513e-01,
          1.56127915e-01, 4.47756015e-02, 3.34911704e-01, 2.50684679e-01,
          5.60632408e-01, 5.31815767e-01, 3.56702387e-01, 7.70662352e-02,
          1.61115732e-02, 1.56842634e-01, 1.03226207e-01, 2.20134869e-01,
          4.09621209e-01, 5.71424901e-01, 3.63424420e-01, 5.26601613e-01,
          4.01505053e-01, 3.94555360e-01, 2.47757837e-01, 1.71137825e-01,
          1.82547823e-01, 1.74087152e-01, 3.35981637e-01, 3.23878318e-01,
          4.81428087e-01, 4.77145195e-01, 2.72617579e-01, 4.67366070e-01,
          5.29600587e-03, 1.14493884e-01, 1.12346247e-01, 3.32988948e-01,
          3.72812003e-01, 4.18311447e-01, 2.97222823e-01, 3.98785025e-01,
          4.18311447e-01, 2.57423490e-01, 2.87108392e-01, 1.92838147e-01,
          2.71307677e-01, 2.04957396e-01, 5.47668859e-02, 8.28027874e-02,
          3.96371633e-01, 4.75968897e-01, 2.72177368e-01, 3.30258399e-01,
          4.75968897e-01, 3.87335122e-01, 3.70589793e-01, 1.78788513e-01,
          4.93855417e-01, 5.01052320e-01, 5.01052320e-01, 3.61846667e-03,
          1.24919843e-02, 4.54078838e-02, 2.78321296e-01, 3.72812003e-01,
          4.18311447e-01, 2.97222823e-01, 3.98785025e-01, 4.18311447e-01,
          2.57423490e-01, 2.87108392e-01, 1.92838147e-01, 2.71307677e-01,
          2.04957396e-01, 5.47668859e-02, 8.28027874e-02, 3.96371633e-01,
          4.75968897e-01, 2.72177368e-01, 3.30258399e-01, 4.75968897e-01,
          3.87335122e-01, 3.70589793e-01, 1.78788513e-01, 4.93855417e-01,
          5.01052320e-01, 5.01052320e-01, 3.61846667e-03, 1.24919843e-02,
          4.54078838e-02, 2.78321296e-01, 3.92441183e-01, 4.64272946e-01,
          4.69055384e-01, 3.37476164e-01, 1.29717335e-01, 3.34954262e-01,
          3.26392502e-01, 1.40712857e-01, 1.91047892e-01, 6.08362198e-01,
          2.89427519e-01, 1.65608302e-01, 9.65669081e-02, 2.83691257e-01,
          2.40053177e-01, 2.19761938e-01, 3.62919271e-01, 4.30336654e-01,
          5.41614592e-01, 1.75266847e-01, 1.13031313e-01, 1.88732594e-01,
          4.70979065e-01, 3.19977313e-01, 5.47620170e-02, 3.97283100e-02,
          5.41614592e-01, 1.91726819e-01, 5.47281057e-02, 1.34667918e-01,
          5.56693673e-01, 5.56693673e-01, 5.84437959e-02, 4.79689576e-02,
          3.33282351e-02, 5.56693673e-01, 8.45181867e-02, 3.58270779e-02,
          2.60098483e-02, 5.62521040e-01, 5.62521040e-01, 2.89044768e-01,
          1.11041620e-01, 1.44595653e-01, 4.85421956e-01, 9.76503640e-02,
          4.81823087e-02, 5.18213250e-02, 5.82728982e-01, 5.82728982e-01,
          3.68519843e-01, 1.05543867e-01, 1.95643291e-01, 3.39514285e-01 ]
      - [ 5.74139059e-01, 5.74139059e-01, 1.57687560e-01, 4.47696671e-02,
          2.74250120e-01, 4.51745003e-01, 1.30508348e-01, 2.86783278e-02,
          1.04806557e-01, 6.09113634e-01, 6.09113634e-01, 9.90948826e-03,
          4.00094269e-03, 9.21242163e-02, 4.16552067e-01, 2.57233512e-02,
          1.81005616e-02, 2.62246937e-01, 4.94095147e-01, 2.32052729e-01,
          2.66805440e-01, 7.28022009e-02, 2.73149073e-01, 4.94095147e-01,
          2.08744481e-01, 1.18981943e-01, 4.94095147e-01, 4.38689172e-01,
          6.29032075e-01, 6.29032075e-01, 1.59710906e-02, 3.67071480e-02,
          3.69460396e-02, 7.39062130e-02, 3.82608250e-02, 3.89207830e-03,
          3.80736053e-01, 3.80736053e-01, 1.52453095e-01, 1.94916442e-01,
          2.55347043e-01, 3.80736053e-01, 3.80736053e-01, 3.80736053e-01,
          3.80736053e-01, 3.46673101e-01, 3.46673101e-01, 3.46673101e-01,
          2.87704617e-01, 3.46673101e-01, 3.46673101e-01, 3.42660904e-01,
          2.74321496e-01, 3.46673101e-01, 7.41446465e-02, 6.81571484e-01,
          6.81571484e-01, 2.21377656e-01, 1.29242707e-02, 4.16960754e-02,
          7.11470470e-02, 4.78569716e-02, 1.87994819e-02, 3.91759634e-01,
          2.37972915e-01, 1.26298144e-01, 7.68752024e-02, 3.91759634e-01,
          3.91759634e-01, 3.91759634e-01, 3.87577295e-01, 3.91759634e-01,
          4.30536002e-01, 1.73174068e-01, 4.05264683e-02, 4.04271871e-01,
          4.30536002e-01, 4.30536002e-01, 3.40259895e-02, 2.40892589e-01,
          4.30536002e-01, 7.41446465e-02, 6.81571484e-01, 6.81571484e-01,
          2.21377656e-01, 1.29242707e-02, 4.16960754e-02, 7.11470470e-02,
          4.78569716e-02, 1.87994819e-02, 3.91759634e-01, 2.37972915e-01,
          1.26298144e-01, 7.68752024e-02, 3.91759634e-01, 3.91759634e-01,
          3.91759634e-01, 3.87577295e-01, 3.91759634e-01, 4.30536002e-01,
          1.73174068e-01, 4.05264683e-02, 4.04271871e-01, 4.30536002e-01,
          4.30536002e-01, 3.40259895e-02, 2.40892589e-01, 4.30536002e-01,
          2.81876251e-02, 1.29998013e-01, 6.59634054e-01, 6.59634054e-01,
          6.47628903e-02, 6.02832176e-02, 3.03903937e-01, 7.04477280e-02,
          1.83759611e-02, 2.04664722e-01, 3.81893486e-01, 3.81893486e-01,
          3.81893486e-01, 2.08631814e-01, 3.81893486e-01, 3.81893486e-01,
          3.81893486e-01, 1.88981667e-01, 3.64092290e-01, 3.56262594e-01,
          1.69138968e-01, 3.64092290e-01, 3.64092290e-01, 3.64092290e-01,
          2.13195369e-01, 3.64092290e-01, 3.64092290e-01, 4.24942315e-01,
          4.24942315e-01, 4.24942315e-01, 4.24942315e-01, 1.36553273e-01,
          1.27344066e-02, 2.21784368e-01, 1.57727614e-01, 4.24942315e-01,
          2.98431128e-01, 3.82893644e-02, 1.51558250e-01, 4.59848702e-01,
          4.59848702e-01, 3.55387367e-02, 1.86556786e-01, 4.59848702e-01,
          4.59848702e-01, 4.28833067e-01, 1.98777571e-01, 4.51295525e-02,
          4.28833067e-01, 4.28833067e-01, 4.28833067e-01, 4.64534909e-02,
          1.80333287e-01, 4.28833067e-01, 4.94095147e-01, 2.32052729e-01,
          2.66805440e-01, 7.28022009e-02, 2.73149073e-01, 4.94095147e-01,
          2.08744481e-01, 1.18981943e-01, 4.94095147e-01, 2.40392283e-01,
          2.41276950e-01, 5.09676874e-01, 1.69852376e-01, 1.58738732e-01,
          1.98659152e-01, 7.79859647e-02, 5.09676874e-01, 5.09676874e-01,
          1.70361817e-01, 5.97422756e-02, 4.40183371e-01, 4.91632670e-01,
          1.86158285e-01, 5.07243387e-02, 8.00013989e-02, 4.91632670e-01,
          4.91632670e-01, 3.46673101e-01, 3.46673101e-01, 3.46673101e-01,
          2.87704617e-01, 3.46673101e-01, 3.46673101e-01, 3.42660904e-01,
          2.74321496e-01, 3.46673101e-01, 3.38554531e-01, 3.99008870e-01,
          3.99008870e-01, 3.99008870e-01, 1.49334222e-01, 1.59134880e-01,
          1.94241494e-01, 3.99008870e-01, 3.99008870e-01, 6.81371242e-02,
          6.29153624e-02, 1.52140886e-01, 5.20200320e-02, 4.28962149e-02,
          2.88531557e-02, 5.84424078e-01, 5.84424078e-01, 5.23387849e-01,
          4.30536002e-01, 1.73174068e-01, 4.05264683e-02, 4.04271871e-01,
          4.30536002e-01, 4.30536002e-01, 3.40259895e-02, 2.40892589e-01,
          4.30536002e-01, 3.90437990e-01, 3.90437990e-01, 3.90437990e-01,
          3.90437990e-01, 3.90437990e-01, 1.50552675e-01, 3.86077985e-02,
          2.39357039e-01, 3.90437990e-01, 6.37467578e-02, 2.83260792e-01,
          2.55309880e-01, 3.39228101e-02, 1.47667238e-02, 4.06822324e-01,
          5.80900133e-01, 5.80900133e-01, 5.43397628e-02, 4.30536002e-01,
          1.73174068e-01, 4.05264683e-02, 4.04271871e-01, 4.30536002e-01,
          4.30536002e-01, 3.40259895e-02, 2.40892589e-01, 4.30536002e-01,
          3.90437990e-01, 3.90437990e-01, 3.90437990e-01, 3.90437990e-01,
          3.90437990e-01, 1.50552675e-01, 3.86077985e-02, 2.39357039e-01,
          3.90437990e-01, 6.37467578e-02, 2.83260792e-01, 2.55309880e-01,
          3.39228101e-02, 1.47667238e-02, 4.06822324e-01, 5.80900133e-01,
          5.80900133e-01, 5.43397628e-02, 3.64092290e-01, 3.56262594e-01,
          1.69138968e-01, 3.64092290e-01, 3.64092290e-01, 3.64092290e-01,
          2.13195369e-01, 3.64092290e-01, 3.64092290e-01, 2.15614617e-01,
          3.76841873e-01, 3.76841873e-01, 3.76841873e-01, 2.28898495e-01,
          3.76841873e-01, 3.76258403e-01, 3.76841873e-01, 2.13849679e-01,
          3.44677508e-01, 5.26193798e-01, 1.77521914e-01, 3.09684090e-02,
          2.61473153e-02, 5.26193798e-01, 5.26193798e-01, 1.05890371e-01,
          3.05465106e-02, 4.28833067e-01, 1.98777571e-01, 4.51295525e-02,
          4.28833067e-01, 4.28833067e-01, 4.28833067e-01, 4.64534909e-02,
          1.80333287e-01, 4.28833067e-01, 4.83925581e-01, 4.83925581e-01,
          2.04497457e-01, 5.46847582e-02, 4.83925581e-01, 4.83925581e-01,
          8.80895108e-02, 3.46795097e-02, 6.82547837e-02, 4.52800661e-01,
          4.52800661e-01, 3.21473330e-01, 1.26526915e-02, 3.43469940e-02,
          4.52800661e-01, 4.52800661e-01, 2.65628695e-01, 1.09405778e-02 ]
      - [ 1.46323413e-01, 4.63089615e-01, 4.63089615e-01, 2.45939329e-01,
          2.09174991e-01, 3.03195715e-01, 4.63089615e-01, 3.41683120e-01,
          1.33014143e-01, 1.70232341e-01, 5.93103953e-02, 3.44537459e-02,
          6.44826740e-02, 4.52506304e-01, 4.52506304e-01, 4.52506304e-01,
          4.25972372e-01, 4.02367741e-01, 4.38340902e-01, 7.53178149e-02,
          4.38200459e-02, 3.12771648e-02, 4.38340902e-01, 4.38340902e-01,
          4.38340902e-01, 1.62285015e-01, 4.38340902e-01, 4.22504872e-01,
          4.22504872e-01, 4.22504872e-01, 7.09301755e-02, 4.22504872e-01,
          4.22504872e-01, 8.06791112e-02, 1.28018260e-01, 2.74406135e-01,
          3.51327538e-01, 3.51327538e-01, 3.51327538e-01, 2.44306922e-01,
          3.51327538e-01, 3.51327538e-01, 3.51327538e-01, 2.69790232e-01,
          3.51327538e-01, 4.00679320e-01, 2.24393263e-01, 4.00679320e-01,
          4.00679320e-01, 4.00679320e-01, 3.45676482e-01, 1.28402531e-01,
          8.33417997e-02, 4.00679320e-01, 3.21625829e-01, 4.24881041e-01,
          4.24881041e-01, 4.24881041e-01, 1.30999506e-01, 3.10248643e-01,
          1.03745379e-01, 2.76356727e-01, 3.87542933e-01, 2.51186937e-01,
          2.45970845e-01, 3.32660049e-01, 3.46666306e-01, 1.85322031e-01,
          1.41318366e-01, 4.42278236e-01, 4.42278236e-01, 4.42278236e-01,
          3.81170958e-01, 1.38769865e-01, 3.81170958e-01, 3.81170958e-01,
          3.81170958e-01, 1.44016042e-01, 2.90596932e-01, 3.81170958e-01,
          3.81170958e-01, 3.21625829e-01, 4.24881041e-01, 4.24881041e-01,
          4.24881041e-01, 1.30999506e-01, 3.10248643e-01, 1.03745379e-01,
          2.76356727e-01, 3.87542933e-01, 2.51186937e-01, 2.45970845e-01,
          3.32660049e-01, 3.46666306e-01, 1.85322031e-01, 1.41318366e-01,
          4.42278236e-01, 4.42278236e-01, 4.42278236e-01, 3.81170958e-01,
          1.38769865e-01, 3.81170958e-01, 3.81170958e-01, 3.81170958e-01,
          1.44016042e-01, 2.90596932e-01, 3.81170958e-01, 3.81170958e-01,
          1.16933919e-01, 1.19292907e-01, 4.71143246e-01, 4.71143246e-01,
          1.88817784e-01, 1.25949562e-01, 1.67244151e-01, 4.71143246e-01,
          4.71143246e-01, 1.30515650e-01, 5.26932292e-02, 6.76834583e-02,
          5.21311224e-01, 5.21311224e-01, 6.76615387e-02, 9.85139534e-02,
          5.21311224e-01, 3.75263095e-01, 5.14334381e-01, 1.06336223e-02,
          7.72422701e-02, 4.16198522e-01, 5.14334381e-01, 5.61375022e-02,
          4.32991423e-02, 1.30065084e-01, 5.14334381e-01, 3.81672949e-01,
          3.81672949e-01, 3.81672949e-01, 3.67805898e-01, 9.64232385e-02,
          1.88842312e-01, 2.95932144e-01, 3.81672949e-01, 3.81672949e-01,
          4.01366323e-01, 3.68730724e-01, 1.00227080e-01, 4.01366323e-01,
          4.01366323e-01, 8.08018744e-02, 1.94882050e-01, 4.01366323e-01,
          4.01366323e-01, 4.87835139e-01, 2.40460187e-01, 9.37317088e-02,
          3.72893542e-01, 4.87835139e-01, 1.43567547e-01, 6.95623904e-02,
          2.23766461e-01, 4.87835139e-01, 4.38340902e-01, 7.53178149e-02,
          4.38200459e-02, 3.12771648e-02, 4.38340902e-01, 4.38340902e-01,
          4.38340902e-01, 1.62285015e-01, 4.38340902e-01, 4.43002045e-01,
          3.31531644e-01, 2.08604187e-01, 3.99897218e-01, 4.43002045e-01,
          2.19545111e-01, 1.92210749e-01, 9.12737176e-02, 4.43002045e-01,
          9.80702043e-02, 3.75510186e-01, 3.75510186e-01, 3.73839110e-01,
          3.18431318e-01, 3.75510186e-01, 2.01089695e-01, 3.75510186e-01,
          3.75510186e-01, 4.00679320e-01, 2.24393263e-01, 4.00679320e-01,
          4.00679320e-01, 4.00679320e-01, 3.45676482e-01, 1.28402531e-01,
          8.33417997e-02, 4.00679320e-01, 5.94888508e-01, 5.96804991e-02,
          5.64505160e-02, 2.90259987e-01, 4.21796650e-01, 3.70809585e-02,
          1.38469748e-02, 1.25685856e-01, 5.94888508e-01, 1.61167279e-01,
          1.45728707e-01, 3.34149510e-01, 4.65984344e-01, 3.96421373e-01,
          1.64472759e-01, 2.91987322e-02, 4.65984344e-01, 4.65984344e-01,
          3.81170958e-01, 1.38769865e-01, 3.81170958e-01, 3.81170958e-01,
          3.81170958e-01, 1.44016042e-01, 2.90596932e-01, 3.81170958e-01,
          3.81170958e-01, 4.89313602e-01, 1.97265204e-02, 2.91893613e-02,
          4.89313602e-01, 4.89313602e-01, 1.53690532e-01, 7.33718276e-02,
          8.45948681e-02, 4.89313602e-01, 1.07895024e-01, 8.04827884e-02,
          2.38789663e-01, 4.32143837e-01, 4.32143837e-01, 2.74549276e-01,
          3.13326538e-01, 4.32143837e-01, 4.32143837e-01, 3.81170958e-01,
          1.38769865e-01, 3.81170958e-01, 3.81170958e-01, 3.81170958e-01,
          1.44016042e-01, 2.90596932e-01, 3.81170958e-01, 3.81170958e-01,
          4.89313602e-01, 1.97265204e-02, 2.91893613e-02, 4.89313602e-01,
          4.89313602e-01, 1.53690532e-01, 7.33718276e-02, 8.45948681e-02,
          4.89313602e-01, 1.07895024e-01, 8.04827884e-02, 2.38789663e-01,
          4.32143837e-01, 4.32143837e-01, 2.74549276e-01, 3.13326538e-01,
          4.32143837e-01, 4.32143837e-01, 5.14334381e-01, 1.06336223e-02,
          7.72422701e-02, 4.16198522e-01, 5.14334381e-01, 5.61375022e-02,
          4.32991423e-02, 1.30065084e-01, 5.14334381e-01, 4.81582552e-01,
          5.95787801e-02, 1.81157459e-02, 2.17373073e-01, 4.81582552e-01,
          4.81582552e-01, 4.05578874e-02, 1.21363617e-01, 4.81582552e-01,
          3.55851382e-01, 3.55851382e-01, 2.64722556e-01, 1.99888185e-01,
          3.55851382e-01, 3.55851382e-01, 3.55851382e-01, 3.55851382e-01,
          3.55851382e-01, 4.87835139e-01, 2.40460187e-01, 9.37317088e-02,
          3.72893542e-01, 4.87835139e-01, 1.43567547e-01, 6.95623904e-02,
          2.23766461e-01, 4.87835139e-01, 3.92917424e-01, 3.92917424e-01,
          3.92917424e-01, 3.78377467e-01, 3.92917424e-01, 2.60133833e-01,
          2.04041898e-02, 1.73775554e-01, 3.70249808e-01, 3.61763209e-01,
          2.82632232e-01, 3.61763209e-01, 1.76034704e-01, 3.16671371e-01,
          3.61763209e-01, 3.61763209e-01, 3.61763209e-01, 3.61763209e-01 ]
      - [ 3.33668649e-01, 6.23216093e-01, 3.85483950e-02, 1.08852843e-02,
          6.68974593e-02, 6.23216093e-01, 3.14311445e-01, 1.46092214e-02,
          2.36941576e-02, 2.39514679e-01, 4.10675734e-01, 4.10675734e-01,
          4.10675734e-01, 4.10675734e-01, 4.10675734e-01, 2.44827509e-01,
          1.84892133e-01, 3.36448699e-02, 2.44798005e-01, 2.79411793e-01,
          3.97070140e-01, 3.97070140e-01, 3.97070140e-01, 1.93442926e-01,
          3.07328880e-01, 3.97070140e-01, 3.09040934e-01, 4.19478744e-01,
          2.93449312e-01, 1.25305891e-01, 8.42512026e-02, 1.42907098e-01,
          5.34249485e-01, 5.34249485e-01, 2.60593444e-01, 2.24974453e-01,
          4.37446833e-01, 4.37446833e-01, 4.37446833e-01, 3.60032648e-01,
          1.32210791e-01, 1.45845890e-01, 3.19971830e-01, 3.23317945e-01,
          2.15082660e-01, 3.52790713e-01, 1.28418714e-01, 3.47789764e-01,
          3.52790713e-01, 3.52790713e-01, 3.35049987e-01, 3.52790713e-01,
          3.52790713e-01, 3.52790713e-01, 1.85244665e-01, 2.50837058e-01,
          2.46271983e-01, 3.08076203e-01, 4.42644924e-01, 3.71982783e-01,
          4.42644924e-01, 4.42644924e-01, 1.28872275e-01, 4.03795958e-01,
          4.03795958e-01, 4.03795958e-01, 4.03795958e-01, 4.03795958e-01,
          3.03202838e-01, 2.54348397e-01, 1.00986630e-01, 1.17843054e-01,
          3.61111909e-01, 3.54357779e-01, 1.68849930e-01, 3.61111909e-01,
          3.61111909e-01, 3.61111909e-01, 2.57701844e-01, 3.51984411e-01,
          3.61111909e-01, 1.85244665e-01, 2.50837058e-01, 2.46271983e-01,
          3.08076203e-01, 4.42644924e-01, 3.71982783e-01, 4.42644924e-01,
          4.42644924e-01, 1.28872275e-01, 4.03795958e-01, 4.03795958e-01,
          4.03795958e-01, 4.03795958e-01, 4.03795958e-01, 3.03202838e-01,
          2.54348397e-01, 1.00986630e-01, 1.17843054e-01, 3.61111909e-01,
          3.54357779e-01, 1.68849930e-01, 3.61111909e-01, 3.61111909e-01,
          3.61111909e-01, 2.57701844e-01, 3.51984411e-01, 3.61111909e-01,
          1.75134748e-01, 7.61572868e-02, 8.69567469e-02, 1.38423458e-01,
          8.58488679e-02, 4.72612074e-03, 3.73286873e-01, 6.26026988e-01,
          6.26026988e-01, 2.45616049e-01, 4.54093128e-01, 4.54093128e-01,
          4.54093128e-01, 6.40933365e-02, 2.27914274e-01, 1.45149320e-01,
          3.50255519e-01, 3.41665477e-01, 3.48213136e-01, 3.36188436e-01,
          3.36283594e-01, 3.48213136e-01, 3.48213136e-01, 3.48213136e-01,
          2.07116768e-01, 3.48213136e-01, 3.48213136e-01, 7.97341485e-03,
          5.07193152e-03, 2.03726798e-01, 5.62795579e-01, 3.29594389e-02,
          1.94810182e-02, 3.32230069e-02, 5.62795579e-01, 5.62795579e-01,
          3.40919137e-01, 4.08062845e-01, 4.08062845e-01, 4.08062845e-01,
          1.11121058e-01, 1.05781466e-01, 1.53569773e-01, 4.08062845e-01,
          4.08062845e-01, 3.52020383e-01, 3.14604849e-01, 3.52020383e-01,
          3.52020383e-01, 3.52020383e-01, 3.52020383e-01, 3.52020383e-01,
          1.73430935e-01, 3.52020383e-01, 2.44798005e-01, 2.79411793e-01,
          3.97070140e-01, 3.97070140e-01, 3.97070140e-01, 1.93442926e-01,
          3.07328880e-01, 3.97070140e-01, 3.09040934e-01, 1.43922791e-01,
          1.45192489e-01, 3.98427159e-01, 3.98427159e-01, 3.98427159e-01,
          3.10809076e-01, 3.98427159e-01, 3.98427159e-01, 2.52788067e-01,
          7.77199119e-02, 2.68202648e-02, 4.45921332e-01, 5.08699238e-01,
          4.11781296e-02, 1.38160195e-02, 1.05369143e-01, 5.08699238e-01,
          5.08699238e-01, 3.52790713e-01, 1.28418714e-01, 3.47789764e-01,
          3.52790713e-01, 3.52790713e-01, 3.35049987e-01, 3.52790713e-01,
          3.52790713e-01, 3.52790713e-01, 3.81275892e-01, 5.47324717e-02,
          8.19477662e-02, 3.38011920e-01, 3.81275892e-01, 3.81275892e-01,
          3.81275892e-01, 3.81275892e-01, 3.81275892e-01, 8.16846117e-02,
          1.59526959e-01, 5.82867026e-01, 5.82867026e-01, 3.09114248e-01,
          5.90500794e-02, 1.50498807e-01, 2.77553558e-01, 2.89596826e-01,
          3.61111909e-01, 3.54357779e-01, 1.68849930e-01, 3.61111909e-01,
          3.61111909e-01, 3.61111909e-01, 2.57701844e-01, 3.51984411e-01,
          3.61111909e-01, 1.63790733e-01, 2.31356788e-02, 1.27448604e-01,
          4.24832433e-01, 4.24832433e-01, 2.23018706e-01, 4.24832433e-01,
          4.24832433e-01, 4.24832433e-01, 8.85281805e-03, 4.86404091e-01,
          4.86404091e-01, 2.33194560e-01, 4.51643229e-01, 3.01558793e-01,
          3.87749851e-01, 1.47589535e-01, 2.13098619e-02, 3.61111909e-01,
          3.54357779e-01, 1.68849930e-01, 3.61111909e-01, 3.61111909e-01,
          3.61111909e-01, 2.57701844e-01, 3.51984411e-01, 3.61111909e-01,
          1.63790733e-01, 2.31356788e-02, 1.27448604e-01, 4.24832433e-01,
          4.24832433e-01, 2.23018706e-01, 4.24832433e-01, 4.24832433e-01,
          4.24832433e-01, 8.85281805e-03, 4.86404091e-01, 4.86404091e-01,
          2.33194560e-01, 4.51643229e-01, 3.01558793e-01, 3.87749851e-01,
          1.47589535e-01, 2.13098619e-02, 3.48213136e-01, 3.36188436e-01,
          3.36283594e-01, 3.48213136e-01, 3.48213136e-01, 3.48213136e-01,
          2.07116768e-01, 3.48213136e-01, 3.48213136e-01, 3.39080423e-01,
          2.54500955e-01, 3.16254348e-01, 2.95589536e-01, 1.29556432e-01,
          4.14956719e-01, 4.14956719e-01, 4.14956719e-01, 3.08814317e-01,
          2.64630109e-01, 4.85157311e-01, 4.85157311e-01, 2.48553865e-02,
          3.98542583e-02, 1.43633246e-01, 4.85157311e-01, 3.91799748e-01,
          2.06515536e-01, 3.52020383e-01, 3.14604849e-01, 3.52020383e-01,
          3.52020383e-01, 3.52020383e-01, 3.52020383e-01, 3.52020383e-01,
          1.73430935e-01, 3.52020383e-01, 3.53488088e-01, 1.95760682e-01,
          7.22322240e-02, 3.52213979e-02, 4.06498492e-01, 4.06498492e-01,
          4.06498492e-01, 4.06498492e-01, 4.06498492e-01, 5.52303016e-01,
          5.52303016e-01, 1.16633371e-01, 5.66289946e-03, 9.01407376e-02,
          5.52303016e-01, 1.93728462e-01, 9.12683681e-02, 1.08385712e-01 ]
      - [ 3.77336949e-01, 3.77336949e-01, 3.77336949e-01, 3.77336949e-01,
          1.01689771e-01, 2.84534097e-01, 2.25012735e-01, 3.77336949e-01,
          3.77336949e-01, 3.78536791e-01, 3.40497404e-01, 3.78536791e-01,
          3.78536791e-01, 2.86093056e-01, 3.78536791e-01, 3.78536791e-01,
          2.34995782e-01, 1.63575470e-01, 4.41213131e-01, 4.41213131e-01,
          4.41213131e-01, 4.20256495e-01, 1.22994371e-01, 1.48454845e-01,
          3.76476571e-02, 4.14395183e-02, 4.41213131e-01, 1.42532304e-01,
          7.80318454e-02, 7.20910281e-02, 2.36603498e-01, 1.30329132e-01,
          1.97049111e-01, 5.32692373e-01, 5.32692373e-01, 5.32692373e-01,
          8.22025314e-02, 4.06046450e-01, 4.06046450e-01, 4.06046450e-01,
          1.00028917e-01, 2.61875242e-01, 4.06046450e-01, 4.06046450e-01,
          2.93655157e-01, 3.88522744e-02, 5.71393251e-01, 5.71393251e-01,
          5.71393251e-01, 2.81239711e-02, 1.13033568e-02, 6.20571487e-02,
          8.91589522e-02, 2.43879743e-02, 3.84500735e-02, 1.10461814e-02,
          3.32530588e-02, 6.36503622e-02, 8.62235278e-02, 3.55528712e-01,
          6.47463202e-01, 6.47463202e-01, 1.20523795e-01, 8.56629536e-02,
          3.94540280e-01, 3.94540280e-01, 3.94540280e-01, 1.40916571e-01,
          2.24493191e-01, 3.94540280e-01, 3.94540280e-01, 3.74373555e-01,
          5.53631261e-02, 1.05742335e-01, 6.20508671e-01, 6.20508671e-01,
          2.37457827e-01, 1.67807117e-01, 8.53673816e-02, 2.38007680e-01,
          2.47012794e-01, 3.84500735e-02, 1.10461814e-02, 3.32530588e-02,
          6.36503622e-02, 8.62235278e-02, 3.55528712e-01, 6.47463202e-01,
          6.47463202e-01, 1.20523795e-01, 8.56629536e-02, 3.94540280e-01,
          3.94540280e-01, 3.94540280e-01, 1.40916571e-01, 2.24493191e-01,
          3.94540280e-01, 3.94540280e-01, 3.74373555e-01, 5.53631261e-02,
          1.05742335e-01, 6.20508671e-01, 6.20508671e-01, 2.37457827e-01,
          1.67807117e-01, 8.53673816e-02, 2.38007680e-01, 2.47012794e-01,
          1.01086393e-01, 3.71844545e-02, 1.66825309e-01, 4.22297925e-01,
          2.22833186e-01, 2.30298806e-02, 4.92317826e-01, 4.92317826e-01,
          4.92317826e-01, 4.25329030e-01, 4.33507748e-02, 1.25647366e-01,
          2.34858364e-01, 1.62362754e-01, 1.10793054e-01, 1.45021126e-01,
          5.83428025e-01, 5.83428025e-01, 5.26588678e-01, 7.36571774e-02,
          2.50110030e-01, 5.26588678e-01, 2.46815622e-01, 1.09802201e-01,
          4.82864790e-02, 1.39884174e-01, 5.26588678e-01, 2.90377457e-02,
          8.55212286e-03, 1.83619782e-01, 7.28718817e-01, 6.51767194e-01,
          1.88912023e-02, 1.21977669e-03, 7.93727022e-03, 4.29037660e-02,
          3.87020439e-01, 2.35557128e-02, 1.65336928e-03, 5.27441680e-01,
          5.27441680e-01, 8.66170228e-02, 5.74970152e-03, 4.76489514e-02,
          5.27441680e-01, 5.22272527e-01, 8.03371966e-02, 6.24788776e-02,
          2.17149004e-01, 5.22272527e-01, 1.66825861e-01, 6.59978297e-03,
          3.01815361e-01, 5.22272527e-01, 4.41213131e-01, 4.41213131e-01,
          4.41213131e-01, 4.20256495e-01, 1.22994371e-01, 1.48454845e-01,
          3.76476571e-02, 4.14395183e-02, 4.41213131e-01, 3.88454646e-01,
          5.83002120e-02, 3.08030266e-02, 3.87130715e-02, 2.45261453e-02,
          2.05748924e-03, 2.67967824e-02, 6.46328092e-01, 6.46328092e-01,
          1.25577435e-01, 2.72185896e-02, 5.28614074e-02, 1.37448162e-01,
          7.97231495e-02, 0., 5.59448749e-02, 6.87551379e-01,
          6.87551379e-01, 3.88522744e-02, 5.71393251e-01, 5.71393251e-01,
          5.71393251e-01, 2.81239711e-02, 1.13033568e-02, 6.20571487e-02,
          8.91589522e-02, 2.43879743e-02, 1.43804833e-01, 1.65247574e-01,
          5.49232900e-01, 5.49232900e-01, 2.33818471e-01, 2.33527757e-02,
